120 20
warrant -1.4734912925163295 -6.000000020839225 2.092410399372829 -6.000000187983264 2.640433897743088 1.7317930628125835 -3.4387770285744175 2.0252766984205084 4.974137137077256 0.6199510782396324 2.5971606131653906 -4.248619212775145 6.000001236061725 -3.2882813224057377 -3.3470669201289196 1.6433847073376444 4.1880755906697855 3.3595921076503896 3.196390820031742 2.3650136126680583
warrant,warrant 2.4259332630603376 -5.9880034288909245 3.400499951439535 -6.000000297083302 3.174485071982684 1.7524495706531438 -2.0081515254533797 1.9135090932782968 4.959151734132854 3.234178049527425 3.2294715156941383 -2.982351508535688 6.000001040109107 -1.9650783042163156 -0.5261925181836533 2.9324249242759075 5.001219688879997 3.3449069544439287 5.496906648271552 3.4226418369418954
warrant,warrant,warrant 2.4793917656856745 -5.975088192947146 3.5020956590308936 -6.000000601929746 2.556575690052289 1.148053654671337 -0.9129963536676127 0.7413526536722093 4.6200299545123675 3.3953332178367654 2.866026007006127 -2.1644595685671786 6.000000014763691 -1.7951358533049777 0.13414093793693443 2.5796508654903043 5.153495772130515 2.581465240659106 6.00000031756317 3.6948817245176886
warrant,warrant,warrant,warrant 4.055684706858754 -5.969693976943975 3.9213907028756614 -6.000000073095467 3.1114473893164565 0.34369696065038075 3.955587388067065 -0.3166021922889393 4.444718619690141 4.2465528014375264 3.438532113228322 -0.1062750903055522 6.000000105880388 2.7040817853082104 3.4425480765566205 3.4238721351152845 5.639712794476503 0.6456450623588085 6.000000812854729 4.5978696948026965
Guarentee -0.22857957526549647 0.7121823328621432 0.21644461625786393 6.0000007139660765 0.261399510102321 0.34493980850392414 -3.319117041136133 0.6864914475716043 -6.000020320449974 -3.228585463021766 0.6168797390302249 -5.049895966175488 -6.000000129775267 -1.3028916158852475 -3.2000950649197812 0.2718852814669383 4.206453223150461 0.05426412199124848 4.951905509405455 -5.835608825402962
Guarentee,Guarentee 1.0221306231722165 2.389217320947503 0.5983859400774753 6.000014769689989 0.30434768444452703 -0.03041525942608685 -2.8171033368865244 0.033690894879469795 -6.000000880573341 -2.9640656855643766 0.6983369571609954 -4.813677428886064 -6.000000415869084 -0.6520779524479096 -2.719999373891074 0.7104296516264628 4.562204439120223 -1.300805638686284 5.413511335078136 -5.732926722371119
Guarentee,Guarentee,Guarentee 2.313891430313217 3.566101917395062 1.6889689020438563 6.000001611658958 1.2699692183978417 0.018967469012281038 -1.8687405806870139 0.07709406161456968 -6.0000042524707125 -2.446815009876453 1.5742967722819068 -4.624128188241985 -6.00000057784484 1.3746739638087353 -1.536107106486567 1.6935228560583018 4.817140795912548 -1.2499530529472855 5.681944032503508 -5.661260313301889
Guarentee,Guarentee,Guarentee,Guarentee 3.2687756858260273 4.174168300430171 2.708189001580477 6.0000015209882305 2.313853465910631 0.1112405446650613 1.8652647025519544 0.23905429531800865 -6.0000011620936125 -0.7331913151592329 2.4846827949558397 -4.4546732304405054 -6.000017168326817 2.793470851810784 1.8732601475709239 2.6567848691519402 5.15669985763484 -1.0738215852897564 6.000000636617147 -5.610775709970414
invest -2.036879102031563 3.4745821919961384 -3.210007553300028 6.000012355557584 0.2989337719911275 -0.44485542430438524 -0.738116070173456 0.46752604839763096 3.996913846110101 -1.9729596752777814 -3.449670412038792 3.4863249579900315 4.723087791501167 1.1783379571098462 -0.12056787458762938 0.6975152592442796 -6.000000523628725 0.3988160310422274 -6.000001521244239 2.1827336809068205
invest,invest -0.7059506632318897 3.5482029483975297 -2.892070323179098 6.000000633630498 0.8013463622662272 -0.5692929891054928 1.160399074749568 0.08746387691936527 3.670895487402076 -0.5605961880545216 -3.228913872490517 3.494798570194081 5.5959402755875445 1.573320891281456 1.2670711269386246 1.153940771647294 -6.0000234830634405 -0.2812006698870653 -6.000021952600643 2.8126958857725874
invest,invest,invest 0.33681795712708684 4.058255158898343 -2.7493043018700773 6.00001675064613 1.1784061888479884 -0.5786426241827622 2.5543871673293546 0.09037574253738423 3.620700125044158 0.668536499959372 -3.166825758335603 4.090649331945623 5.745148122195313 2.405387098745612 2.7752829853744627 1.6110113978841951 -6.000008917955116 -0.40645237788744976 -6.000006507546729 3.449103237982987
invest,invest,invest,invest 1.9786887525402719 4.359877617114846 -2.3454889580828864 6.000000116567933 1.8910479612838227 -0.5592963906177062 3.3084288003337727 0.15356709843138908 3.7276540046833815 2.1444378693289363 -2.9966274109072755 4.43820050742081 5.964036573287843 3.003011232313234 3.4534053447615927 2.2578434468124353 -6.000028711545473 -0.23461602158707187 -6.000018615609816 3.9025489589771736
warrant,Guarentee -2.4818120325217654 -3.3973537345854834 -1.9296193279616076 -5.396492672678734 -1.446132713769004 0.11576623544268969 -2.9057934157983283 0.11016866707287047 -0.9596411870420061 -2.4327768521550945 -1.4559242122372613 -3.482878598691648 -4.7318570145936905 -2.4216587556884153 -2.903639673261855 -1.8004504917330257 -3.5466369571839125 0.20856078317875273 -4.60907284452657 -3.0683322659767427
warrant,invest -2.0469285843999647 -3.0274504797046755 -1.509032851686176 -5.065916888735927 -1.1608695633805342 0.05367529365500911 -2.4661373445157735 0.06848268641813299 -0.00036434308074901223 -1.9723128212586831 -1.1599590314694552 -3.116515596561234 -4.48098714122703 -2.0611461288271062 -2.51706705198928 -1.5592269267148204 -3.044536601211536 0.19850995986631984 -4.141802867993124 -2.702935932784564
invest,warrant -2.0618928442849755 -3.0506333393394223 -1.5656151631173598 -4.280092545917005 -1.1483280760779804 0.007092945241189942 -2.5444483130954554 0.09271266908771526 0.2873266142110671 -2.082653007593963 -1.2415294974628295 -3.180975708321026 -4.459587866876136 -1.8810580305290545 -2.612186701204881 -1.3431386929842781 -3.6838367831664636 0.063269004358396 -4.646756788715396 -2.736330711349921
warrant,Guarentee,Guarentee -2.146339783234144 -3.083796174483197 -1.6617472746997428 -4.957260546417809 -1.37203753591606 -0.027228503481332926 -2.519407309723212 -0.0743510612757981 -1.4127032304993568 -2.0984120847193477 -1.3167328956969595 -3.118214784783025 -4.291255526477963 -2.027704052738137 -2.5356501031133623 -1.5611263521357004 -3.196305898328233 -0.2589389951978803 -4.2146114847789535 -2.6672709236829584
Guarentee,warrant -1.8680053481633607 -2.964498486300988 -1.293264027689643 -4.07414738986732 -0.9384134552521674 0.20040590721067242 -2.4029265333653482 0.28079872835785 -2.3686045630630193 -1.9168628247154624 -0.9357971328632652 -3.1410971890877204 -4.8226911486506845 -1.8067075984421903 -2.4331035278944477 -1.1464227707283126 -2.9077843822816165 0.5948670983619966 -4.013838776370706 -2.6648830347941597
warrant,Guarentee,Guarentee,Guarentee -2.0926713471836136 -3.0273713995102844 -1.615269885795683 -4.91553637914899 -1.2951738861772477 -0.017302925029156393 -2.4590465125973213 -0.1009042746827093 -1.3677290710784853 -2.0437684031965353 -1.2937912794245043 -3.0676582707086277 -4.233646213279272 -1.9752710032477194 -2.4715896457173194 -1.4891002944244436 -3.161794920923815 -0.21594485018858672 -4.172314162054172 -2.6006651868776784
invest,warrant,warrant -1.9117921081935965 -2.865494593186436 -1.4250393525019929 -4.10590536886406 -1.0482124023225958 0.024334273422541193 -2.3474914678904244 0.04624251205631784 0.0035717177184115363 -1.9047073666829488 -1.1337932074395547 -2.9921045415292244 -4.28437984157788 -1.7379980124457612 -2.3930508670990864 -1.2307440429146592 -3.4514312852560645 -0.008788255153268606 -4.42507380091384 -2.535203079072459
invest,warrant,warrant,warrant -1.845810080799985 -2.782793404292178 -1.3250900853158771 -4.047531656055813 -1.0169695881395593 -0.007468898363015015 -2.270543286721571 0.040653049703363316 0.03263048295957533 -1.814608035698613 -1.0567681612209763 -2.907620542470881 -4.216486704552753 -1.660016308556272 -2.3078221199112043 -1.166115148946235 -3.393213958740812 -0.040570046805912675 -4.374977444656124 -2.46239064703806
Guarentee,warrant,warrant -1.6178514322467004 -2.751893310049243 -1.1354468680193768 -3.8803993714926315 -0.8202571645834124 0.13171348653720608 -2.1235578737431355 0.18311250200990345 -1.9785978795863741 -1.6617864243984755 -0.7931361082592904 -2.9085321666636763 -4.582280817931983 -1.5523303945820668 -2.173742065536432 -1.0229786189141703 -2.6858391842904252 0.35382088475516316 -3.795695972974733 -2.421610500396541
Guarentee,warrant,warrant,warrant -1.5388729753842743 -2.6142530703910465 -1.0192936037375644 -3.785547804871691 -0.7371999303791256 0.12350917260353174 -2.029854188475346 0.1680185538760312 -1.845276795322667 -1.5556952141283051 -0.7145848364496145 -2.797280320841108 -4.502150241793189 -1.4620748387350426 -2.076876264096097 -0.9206064105627695 -2.5993371324933503 0.34588661461382414 -3.7237756504921378 -2.3104332591936565
warrant,invest,invest -1.5196963003842776 -2.469491205388026 -1.0614721765759059 -4.541780349724011 -0.7982818655177308 0.0408307292150414 -1.880911127564296 0.03154927899097097 -0.018895865226409302 -1.467899890366968 -0.7850842633470353 -2.5365332015997035 -3.9663292242849346 -1.485060942213253 -1.9094837129420361 -1.0756111368194443 -2.3632041036077354 0.07880094687466652 -3.4820538311979448 -2.0996664843918347
warrant,invest,invest,invest -1.4346296050927527 -2.370537478856787 -0.9995391603581535 -4.4723481432372605 -0.7210122939034735 0.046474653221432766 -1.7924584304147784 0.03842901510223043 -0.005646275635467985 -1.3775885962951357 -0.6981441770061415 -2.45157222274127 -3.883361444826309 -1.3988382493435747 -1.8414767754234778 -0.994349270351823 -2.2579003599643594 0.039415559261373107 -3.3786796289104934 -2.009066334327122
warrant,warrant,Guarentee -0.944037749318296 -1.6776677105276145 -0.6383535764593564 -4.0869918334375495 -0.39724216986544153 0.03225404954549835 -1.2968781827977034 0.044010589796996014 -0.2832879392277761 -0.8808735796244541 -0.40036413702519724 -1.7757211775651252 -3.180298419993903 -0.9238333728297808 -1.2428837743975016 -0.5172971270917112 -1.8985134652691062 0.06430360820255743 -3.044730287081168 -1.404259080679208
warrant,Guarentee,warrant -0.8176846647853311 -1.6408436786700678 -0.5212522839896857 -3.8053738998634556 -0.28629199849417536 0.08453825106907263 -1.177540423623784 0.06594907031061359 -0.007855204323302674 -0.7726353021549892 -0.2908290901735502 -1.743330581261698 -3.14580571279434 -0.8462674251621455 -1.1806030898174953 -0.446372630663541 -1.719684317839256 0.15639084712192294 -2.946656640275841 -1.3587732804311676
warrant,warrant,invest -0.8101204442030396 -1.5297348380870712 -0.47782548952425713 -3.9839227137241977 -0.31818421388605383 0.0303746623909273 -1.1340847710896775 0.043059703078378364 -0.008356192406410515 -0.7466615209155727 -0.262942486070677 -1.6666008759603008 -3.133296232133853 -0.7643851878580485 -1.0819449258526785 -0.4431199244868433 -1.5380226261363463 0.09077177367308688 -2.7406277188357957 -1.2381587088113406
warrant,invest,warrant -0.7768703098526061 -1.6465679041497745 -0.5369990621076758 -3.5878618809313076 -0.3411702243772926 0.04035294533444685 -1.0885592451861787 0.03306160160295338 0.023023104501693863 -0.7387827636918511 -0.36765920625609416 -1.7341008332921715 -3.1260964971489114 -0.8701941471235541 -1.1628859914217486 -0.5385092298055177 -1.7182878299925115 0.026162907994364142 -2.894309088648554 -1.3524659282489642
warrant,Guarentee,warrant,warrant -0.5644041950506467 -1.2483540093325192 -0.3483316902013741 -3.4073407522211188 -0.1486156860863672 0.042876973465597545 -0.9036101324930255 0.04914932235567863 -0.00031224511739080915 -0.5870568005956628 -0.17658239015243446 -1.4004047666709714 -2.8348442091998662 -0.6228333839253152 -0.920934489409694 -0.2546103202430476 -1.4036775306146134 0.1274710744081717 -2.6176300749056773 -1.0482324732198829
warrant,invest,warrant,warrant -0.6238947912347561 -1.3160599204500596 -0.3642028477907193 -3.2789319646305155 -0.21993269140454644 0.038224297780815174 -0.9290402981208418 0.04874805874759738 0.08498319533393182 -0.5834743832642002 -0.28229493952886775 -1.4495250336778427 -2.8767290045044973 -0.650395517940534 -0.9653836642356527 -0.41219706637328296 -1.484599698935745 0.05177986995072478 -2.6688182149054267 -1.1117625392435568
invest,Guarentee -0.7336662986730065 -1.4398673195092089 -0.4328887683882638 -2.887822337578169 -0.32120383536778474 0.03444762103039772 -1.0980521616763839 0.023008950324062475 -0.0023904192387756225 -0.7071975909142053 -0.31137651030757635 -1.6201576819350783 -2.8738466527778352 -0.6134317766865639 -1.1237301897505731 -0.303468891475727 -2.152184105539094 0.04891961677855799 -3.248532505316387 -1.1804196705494572
Guarentee,invest -0.5996261492802446 -1.3779897990949523 -0.3099863184419356 -2.675791899466964 -0.20174589435650514 0.03824694586453002 -0.9507040517456379 0.09824236669570112 -0.7537432617749389 -0.5603420408471504 -0.20575158013670694 -1.527054412411919 -3.3422507841086797 -0.49343758851263003 -0.9629534659629532 -0.315511218630519 -1.1946903784349008 0.14318655502979558 -2.377878869895464 -1.1328762488166015
warrant,warrant,Guarentee,Guarentee -0.40440091094137115 -0.8087997027141545 -0.22796020647123663 -3.386298773826337 -0.14059009638952694 0.05797412554499956 -0.6420794730923352 0.0539987409528332 -0.062305193095471605 -0.362627964248619 -0.12614268897223346 -0.9281472619662255 -2.1629854128982706 -0.3984741110601933 -0.574372394483455 -0.13350870367814535 -1.0477368917922156 0.08250840485669626 -2.138066712478067 -0.7107259695889009
warrant,warrant,invest,invest -0.3777422289037757 -0.813496176740863 -0.23055381549371828 -3.3354317556915754 -0.10213521351621598 0.039512243986443554 -0.5887742621619552 0.016549439840536972 0.006194011809232658 -0.37396694370487904 -0.1016910252364634 -0.9614987790226911 -2.36977744564744 -0.36283951999732317 -0.549056021465985 -0.18463468529231683 -0.7846263682807064 0.056502169479918964 -1.7930204989376741 -0.6514952220144525
invest,Guarentee,Guarentee -0.4533040904271319 -1.0012643083457728 -0.2851774580265761 -2.4278443058402717 -0.1692995287044133 0.025640521287656596 -0.7408843421411959 0.024453881616107988 -0.0031389712382952272 -0.44224310097559666 -0.14358229912902729 -1.17874527970146 -2.303989779786244 -0.3538024461581578 -0.7426444975353261 -0.17043494646350976 -1.5620177509854385 0.030114882279778928 -2.699039241498971 -0.8181537522847324
warrant,warrant,Guarentee,warrant -0.45572904265514746 -0.9456457215565762 -0.31013993434467724 -3.024763103599809 -0.17683901133513028 0.03886546939563505 -0.6635598032600761 0.014995812253504435 -0.1196756006835014 -0.41703322117730024 -0.1819414271358844 -1.0089219738480726 -2.3776147324703087 -0.4205208663000353 -0.6726475585423388 -0.2273242996677857 -1.06738366304299 0.012628800763418305 -2.1183328688737624 -0.7142084334962673
invest,Guarentee,Guarentee,Guarentee -0.3999181751328238 -0.9794840206459605 -0.280134837458265 -2.401979884221586 -0.16355002764761467 0.040593823517639335 -0.7070456366284349 0.05542853374155769 -0.0037689626096925268 -0.4386085276661344 -0.13514988904187888 -1.114889333802591 -2.2078131791417923 -0.33186986456506684 -0.7259001083500589 -0.16599519133248902 -1.4550437868332342 0.03192099470958996 -2.591335165391698 -0.7453164640543524
warrant,warrant,warrant,Guarentee -0.3312466273633191 -0.7109649828061976 -0.20071654105957512 -3.0022025616134105 -0.06542427564676893 0.045679391002784585 -0.5121671711959377 0.039566556204703764 -0.04669601271608623 -0.2990257048052097 -0.08527956810832439 -0.7579032751819298 -1.9401947104123565 -0.3261313249104143 -0.431691845902634 -0.17285616736940204 -0.778612682248098 0.07216586995975459 -1.7913135877653594 -0.5068125341298234
warrant,warrant,warrant,invest -0.29709415365693387 -0.67882434086141 -0.17598737302656703 -2.9478212934365966 -0.08463849599041387 0.03840339796068868 -0.4693953868089258 0.03850391392835405 -0.03432927016283076 -0.2859897076945994 -0.12775426237483806 -0.7308590801488882 -2.0178335916743695 -0.29140176894385766 -0.4469904700630806 -0.1424500512192673 -0.7094755044495745 0.06722726417361448 -1.622618442418327 -0.4869285890620425
warrant,warrant,invest,warrant -0.3552795739380062 -0.7053017391014612 -0.22114761364965982 -2.6560633936098514 -0.1510947790615012 0.04500337715481756 -0.46538114342094405 0.012688944812306474 -0.01949433834626275 -0.3166832285884703 -0.11231214848250454 -0.8194308649671501 -2.0136166368480737 -0.3122774784981251 -0.45465434379757114 -0.15902879300891734 -0.8422850193924866 0.06156312173256537 -1.7751698297385454 -0.5720871930699803
Guarentee,invest,invest -0.3417963114363443 -0.940505770914169 -0.17067271433199516 -2.165190178790121 -0.07987201312887775 0.03748245383949716 -0.577817836341733 0.06252583963219127 -0.39486493507921744 -0.3424428201791358 -0.0902437791622256 -1.0439052671002358 -2.703519544920746 -0.31521579364999386 -0.617821960465878 -0.19373532639616284 -0.7039498694665202 0.04378619926387358 -1.709161093484035 -0.7405916217145367
Guarentee,invest,invest,invest -0.352775194371989 -0.8966533709733826 -0.15377212755600875 -2.145506122061278 -0.11457396733130285 0.023974807618988625 -0.5770744919772155 0.023481262708000408 -0.3320220956800062 -0.31114337010423687 -0.09781042875260879 -1.0049597801057182 -2.646406166852975 -0.2597464869668433 -0.5920954188745294 -0.15641163793773497 -0.6939221951566292 0.07805581797631418 -1.689890152921834 -0.6943319248487096
Guarentee,warrant,Guarentee -0.25977460864843765 -0.6115534624639322 -0.0860335795476374 -1.4193595652808293 -0.07547378494393328 0.044300744104056725 -0.43786736717453206 0.047414991081931306 -0.41332210311300177 -0.2988980195969498 -0.05010519506742094 -0.7632449745068911 -2.322605303845354 -0.23188204121930817 -0.47149645891288755 -0.07592756215999091 -0.588917795235259 0.08233596449346613 -1.4504451960433542 -0.5106030441081553
invest,warrant,invest -0.19842186101466722 -0.5759211378629663 -0.13028449810314408 -1.570341371885422 -0.07545527398221005 0.010678831820637374 -0.3731481764749188 0.04904576176713036 0.04454332355193692 -0.2336254628025238 -0.10439261473918149 -0.5973705143626995 -1.6254442913886789 -0.17193479829730599 -0.36366643337097987 -0.11006267486412348 -0.8226617350993546 0.04067580632172663 -1.697938321089426 -0.4356457670863253
Guarentee,Guarentee,warrant -0.21864916596341216 -0.5735233451467737 -0.11460436725353129 -1.3181861568872855 -0.08515574024438086 0.025848610979718988 -0.36881735664289783 0.05162260286611251 -0.4454230049635066 -0.2644751900933049 -0.11175438586898946 -0.6639489557709877 -2.293093085745559 -0.2518608661128894 -0.3615614957168981 -0.12703320758381514 -0.5464035156532013 0.04681533187795861 -1.3161890303098565 -0.4449815429343834
warrant,invest,Guarentee -0.25957921269146483 -0.6225421272545287 -0.12282760721555175 -2.4742592666364507 -0.06088293580616118 0.04054254734371695 -0.38736769253393255 0.03824292931659633 -0.008785980006490827 -0.21762897802357253 -0.11940839109422083 -0.68625557298979 -1.6091452130425912 -0.2592403798643275 -0.39679583178205474 -0.16751290399505733 -0.6123014745339315 0.04185129857550088 -1.4788234205838864 -0.44934083921201023
warrant,Guarentee,invest -0.20234749370340546 -0.48554892021690654 -0.09463026397746051 -2.2206386656861037 -0.07181850415535831 0.007097657496421301 -0.3049716309820204 0.049057038499932426 -0.018681456908646553 -0.1816303592543604 -0.04936121809940167 -0.5671085109091528 -1.475911720227819 -0.18441675709686353 -0.35454706114142515 -0.12015030113777882 -0.49754500123538714 0.03560073849281058 -1.2402250281426168 -0.36795771687061446
invest,invest,warrant -0.1501262500485065 -0.3589349526236433 -0.057723452603125176 -0.9457088043833317 -0.019897587256210245 0.02625454686019184 -0.2557395000266856 0.00487410858389755 0.029523221618749016 -0.1417445802810564 -0.04620136734240703 -0.40065688318779746 -1.2707407234535677 -0.12046952557120306 -0.2748954839124496 -0.02574418342356045 -0.8618535928118572 0.022942820437400296 -1.677852129711512 -0.28536291669508523
invest,Guarentee,warrant -0.21243010277442514 -0.46942864946261953 -0.12479577137310338 -1.3178240411097433 -0.10466635304573041 0.009289259314327591 -0.3216192163566102 0.007563405445652928 0.00024041730293659122 -0.20863368865884802 -0.08405033973838787 -0.5843923446478559 -1.4520002739719047 -0.1747880657637795 -0.3445011060214321 -0.10766776287512582 -0.8708462914158057 0.004394618812512929 -1.7667696578750836 -0.3809343024399261
Guarentee,Guarentee,warrant,warrant -0.14488690676777516 -0.39393386200357355 -0.0785600703816024 -1.0142522063234454 -0.06034348899527083 0.008167036948724804 -0.2536584087828999 0.02142863389490917 -0.270862675193945 -0.19004911084949863 -0.06409142745265228 -0.4783550915049579 -1.9757483043779753 -0.17292178830299182 -0.26599881536749276 -0.04347986114763857 -0.37882860183257794 0.05262734101627391 -1.0308898399512145 -0.35738676182821205
Guarentee,invest,warrant -0.18276025041774685 -0.4925882565691781 -0.09335661159930912 -1.2164969324984405 -0.024529878127379924 0.022761601643117673 -0.31491787478697164 0.04413686572871992 -0.2862359948810455 -0.16602674292864053 -0.061375068597757265 -0.5804858945804959 -2.0448122338064336 -0.13305432190675168 -0.3223568658515253 -0.09173311285851424 -0.4300634656614683 0.09986080883931026 -1.156862498576825 -0.40989763082459013
Guarentee,warrant,Guarentee,Guarentee -0.12150819704131151 -0.33164693017734354 -0.034756266015777026 -0.9841308264415822 -0.025081783327627453 0.017143617756279147 -0.2792507654529746 0.05653961146527103 -0.17987524344576064 -0.15830878443449065 -0.03461629940461363 -0.47910907625270444 -1.7311082298852758 -0.16918300054451446 -0.2500324854444958 -0.005930971589893738 -0.3085876452741732 0.08051597089008276 -0.9484376354654959 -0.32682020738794365
Guarentee,warrant,invest -0.14798816030742987 -0.4228536199901656 -0.06673819272835915 -1.147150480055398 -0.0482144743795338 0.04145016873794355 -0.26014175954130275 0.025360171989047102 -0.2548939353986163 -0.1759446777604741 -0.02731225617005873 -0.48975637610924605 -1.999043660967671 -0.14281563368750946 -0.2703227193851566 -0.06333097529749851 -0.366364183039847 0.05915863411980537 -0.9846377671010799 -0.36077453046325114
invest,invest,warrant,warrant -0.10834827119958865 -0.2849908388162003 -0.0227791788175113 -0.8048448917390995 0.0035806202065282594 -0.0005108328515923407 -0.19688778731094517 0.03860378735011917 0.0352192798380511 -0.07924288462969249 -0.056337166207675114 -0.30796205287522405 -1.0644785932571732 -0.09980142804140761 -0.2067043065181887 -0.04094971716406501 -0.7108201550974335 0.0013653828447347935 -1.462682218832432 -0.23048100446761563
invest,Guarentee,warrant,warrant -0.15038633917714855 -0.41918747708693366 -0.12685970758881024 -1.2047414821773608 -0.08064591013053597 0.005798776364422704 -0.29017865628357475 -0.0014532027263880743 0.0001392041475238045 -0.16759642171892472 -0.09112546329559106 -0.47524428873599406 -1.219125883421195 -0.15683127991260412 -0.2777350733883319 -0.0629024209080632 -0.6967677975160529 0.023924256777933302 -1.512055686479872 -0.30263215763329915
warrant,invest,Guarentee,Guarentee -0.13560627095423108 -0.39462030990302266 -0.04727523568003088 -1.9403219109953975 -0.053679082250157564 0.026109809522598587 -0.2215898518328212 0.010484485978386682 -0.0011570634883753005 -0.11434408303059446 -0.030618357886739934 -0.4076379277667937 -1.0331880282149943 -0.14008257648506933 -0.2286516715853836 -0.06887928887824085 -0.3891086639339543 0.04367881689310521 -1.058871512866944 -0.25628992090060415
invest,warrant,Guarentee -0.1377084963902159 -0.3434973715477223 -0.06817240935328275 -1.0302752170524876 -0.037719704459063655 0.0241645443619761 -0.21370271518716807 0.035979961282236204 -1.2386662424924282e-05 -0.10116120082135535 -0.06068886289033081 -0.37083949144654405 -1.0779631613893852 -0.11438403765081084 -0.2249040475040142 -0.06518994043745908 -0.6330146515342686 0.03393467575127086 -1.37926711268613 -0.2464791097400419
Guarentee,invest,warrant,warrant -0.10791814522603381 -0.3861534835657329 -0.05832318643643243 -1.0561732426113812 -0.0038022822725692217 0.02866585877083843 -0.25644193571944757 0.06383136748185066 -0.20507426178891525 -0.10889580918380469 -0.032101643463184316 -0.45801212651465123 -1.785514113184595 -0.11708734820848915 -0.23844041281338496 -0.0508255717821823 -0.3099739929011629 0.08186166282749922 -0.9327721834644028 -0.28594831689458045
invest,warrant,invest,invest -0.07634413391606298 -0.24901625143444345 -0.027795796553014507 -0.9586102203958029 -0.02751483071997207 0.00645974545751238 -0.19094444130669863 0.044499554162126996 0.023551645487019317 -0.07847659666909053 -0.04979691253394875 -0.32655492221701854 -0.9891251261824716 -0.07386276702909288 -0.18744257284963656 -0.03861472723758265 -0.3720690244903393 0.007795239341572403 -0.9343919749062888 -0.2346374914513616
warrant,Guarentee,warrant,Guarentee -0.14477992482918595 -0.31896029147398963 -0.09012499074001817 -1.613339189846734 -0.06448295139519247 0.01036502313106216 -0.21242672288387646 0.01609919645848707 -0.03138299369426012 -0.12395627840585965 -0.027282462147022922 -0.35844800920362174 -0.9890623444144282 -0.13471738527609892 -0.20417309128356928 -0.07382915203353851 -0.3350387122408325 0.043580609063177955 -0.909327072804866 -0.23539870647542888
warrant,Guarentee,invest,invest -0.0874205642783983 -0.26346144574816527 -0.051846068848259215 -1.5242422645254912 -0.019087461247054172 0.013244488039006968 -0.17762621022792285 0.025696619914605708 -0.008915196811873903 -0.08912940387217318 -0.04173585356377347 -0.327310646108756 -0.887548923740894 -0.08681907039369627 -0.20572341672700595 -0.026942875752629145 -0.2483469443679052 0.02929819822992783 -0.7224403378063882 -0.22687397024475323
Guarentee,warrant,invest,invest -0.06418558355778754 -0.2524115377312783 -0.018155071931219794 -0.820404666081421 -0.020704268542378577 0.024052933142995253 -0.15512816233604293 0.027665886090528582 -0.14357178346951877 -0.09313885594397074 -0.03131906977806401 -0.3015409403591553 -1.4875314154054062 -0.0831638184249972 -0.14747418743725374 -0.0357679254509135 -0.2422780212684105 0.06877265979051335 -0.6263110416247645 -0.19595286337028575
Guarentee,Guarentee,invest -0.12589108747265107 -0.3071303664647875 -0.08399656898127451 -0.8603109147535221 -0.023903535956522018 0.013656876963946855 -0.14922516499677854 -0.00016389824661073546 -0.1277135381359747 -0.10263430298694473 -0.04451708401145778 -0.31921915920495375 -1.2873925412574911 -0.07903797443807979 -0.20540003116010194 -0.04995185077607263 -0.2755855767661842 0.019856845817728695 -0.6796369165938777 -0.2275617649065855
invest,warrant,invest,warrant -0.11743893010914466 -0.29111885972335017 -0.039311580971563884 -0.828704509981067 -0.02771747133157226 0.014485638428206764 -0.16316620677779478 0.030994260855610113 0.0338104240449452 -0.08117141981706535 -0.03443444544411485 -0.271427801096914 -0.8924396704209309 -0.09768636009767502 -0.14286132815223268 -0.03706407657963258 -0.4386438843992861 -0.0020332757684670875 -0.9921031125139729 -0.18016338547470784
warrant,warrant,invest,Guarentee -0.0682799903585712 -0.2428286188676084 -0.051738157602786175 -1.404672444003952 -0.020820916870783114 0.0435846282811036 -0.1200497475506743 0.003640590798791967 0.023392413922900555 -0.08013110393209577 -0.024808667618077956 -0.2763487181245841 -0.6625261373694991 -0.0895570180442898 -0.13289734827394817 -0.028948861653551625 -0.23521111486591315 0.044141726564154826 -0.6554152952435309 -0.1640269225499359
warrant,invest,warrant,invest -0.08957461798668832 -0.28569237706180084 -0.05218815975581334 -1.3040196336195529 -0.057878950935704866 0.031924950165529875 -0.11570047216729307 0.010458310123535468 -0.001882677413967008 -0.10917853454315982 -0.030173163855081734 -0.2728020500715035 -0.85205485348659 -0.10836074618655614 -0.13037618391214306 -0.03717132148052524 -0.23732538466692252 0.010612882043287078 -0.6606088178352391 -0.1692107240033335
Guarentee,warrant,warrant,Guarentee -0.07367392561793981 -0.2742221842669297 -0.053666906205288537 -0.7597712045245834 -0.0029203694989902752 0.054839445047320586 -0.13406866465157508 0.04088461835251546 -0.0957181685941849 -0.0715192562840596 -0.03285492394958096 -0.2944930474668599 -1.1298411072070274 -0.07149382950411849 -0.18073593390424553 -0.01923955456224392 -0.22398649373524282 0.02811465263558129 -0.6885095793804021 -0.20229164310617184
invest,warrant,Guarentee,Guarentee -0.06965629341372574 -0.1871904755978889 -0.004767476679771594 -0.7016121984236223 -0.02908215748513899 0.042841031354976404 -0.12282764101061401 0.0289342993554905 -0.0005439526118423445 -0.057890832854872745 0.001943062373856505 -0.21573350179360049 -0.6567295730870117 -0.042467923849081254 -0.11721494852968717 -0.04568266877360564 -0.37437794695213295 0.03529068420084025 -0.9005714685899491 -0.11361338501062009
invest,warrant,warrant,invest -0.033307391349823356 -0.15208114778511556 -0.0379437985666746 -0.5362200495826085 -0.013312767344116079 0.02063364438801924 -0.09209598883192899 0.012087367782098471 0.05861730925101709 -0.062449488460856656 -0.02444122142912221 -0.20857844622329436 -0.5863700798877034 -0.03641577791605184 -0.11737256061123935 0.006914022686947339 -0.19505975601688488 0.04223213620994735 -0.5520926364865948 -0.12296734720548257
Guarentee,warrant,Guarentee,warrant -0.08379000992819177 -0.23619137500765772 -0.04472384394163316 -0.6823214108637611 0.004798107092870779 0.03000017720749839 -0.16475117158878927 0.03362423853083159 -0.11416532827438707 -0.06278984838235264 -0.02767080851759101 -0.30737121361919145 -1.196303112810817 -0.0889739841015635 -0.13911601907533266 -0.0459922560317738 -0.24299981368531665 0.044668729681246 -0.6175165132044437 -0.1664909919598433
warrant,Guarentee,warrant,invest -0.07964019855460198 -0.20552913275484216 -0.04478204318351337 -1.315803987219337 -0.037382289919842916 0.048254951884154275 -0.11140007174014581 0.04537582551611554 -0.003345383941763732 -0.08843648920680833 -0.037147698686665495 -0.23745406464015978 -0.7546493053781503 -0.0603261757578927 -0.1523902958878331 -0.042287519757693154 -0.21496603099566436 0.009215952566296209 -0.5735994011210359 -0.13388035638924373
warrant,invest,invest,warrant -0.12111853063381685 -0.30677458856920736 -0.06506810013666117 -1.0910041387269702 -0.025537482585768063 0.041274052251451636 -0.1412900300357614 0.03886256845263329 -0.02734384679454805 -0.07080463823599423 -0.03461448055146252 -0.28113190223330375 -0.8543989272866237 -0.09224894777230448 -0.18101421283448182 -0.07587567911607636 -0.2840504680618225 0.034899445108655905 -0.686171713945275 -0.1644047377697148
invest,invest,Guarentee -0.04850620182797982 -0.21243277763063226 -0.020626567946278603 -0.6682201242073887 -0.0227267972351125 0.010885548735432548 -0.12365682910889937 0.029854578926787664 0.0060638913133245625 -0.0539757358614565 -0.01885929003406758 -0.23447006423910174 -0.6645078568198711 -0.06134658889100936 -0.13612932116110682 -0.018302976538969375 -0.3293771612865412 0.024766663778907225 -0.7848027069407828 -0.12748738209378188
warrant,warrant,Guarentee,invest -0.06580844430723333 -0.2056799074709169 -0.034125483442981996 -1.15975488850739 -0.018780617312141167 0.04260316280212044 -0.1349864125363687 0.01670756601706141 -0.020663157975714108 -0.04928773955684197 -0.0006908627589468435 -0.19221461557879108 -0.6541372926643045 -0.07679985227214116 -0.11659359210968825 -0.050916941864808545 -0.1681762739181589 0.0095048191131378 -0.528180608418478 -0.11471046614539826
warrant,Guarentee,Guarentee,warrant -0.10622711892655762 -0.22044944735748304 -0.04748941698169201 -1.1342941344677022 -0.046829217638327376 0.004246370011837992 -0.12521725419054627 0.007651598240485305 -0.024982853255113586 -0.08974245904909557 -0.04819644514144736 -0.2126124910573234 -0.7570856085205757 -0.07249680314746387 -0.12385089556017034 -0.019128773367356248 -0.21833620509672233 0.005301339782722839 -0.6525727852347031 -0.15243172195854282
warrant,Guarentee,invest,warrant -0.09800123381848277 -0.16995448739606955 -0.03857234641895408 -1.1518810343788677 -0.042268120403119856 0.03828602780808978 -0.12993203214325785 0.023907905359344138 0.005268658645922658 -0.05708962030450952 -0.029327246130057445 -0.18047964955257795 -0.7223608175060102 -0.0761838375377571 -0.0997775993929916 -0.017931951263440698 -0.23479176609872981 0.007617637233200449 -0.5994770687153795 -0.119771843032174
invest,warrant,warrant,Guarentee -0.05134184085146515 -0.1444977990133172 -0.03591887933537475 -0.510853162109645 -0.0045349226378945465 0.02337848827543859 -0.10494173884728249 0.029153190353307247 0.0018968777736641245 -0.0737063179836436 0.009209739581558447 -0.1383400015761217 -0.4798443527390909 -0.0527944711123977 -0.0996024453025938 -0.0026292722800539564 -0.27144267512500697 0.043066390384668925 -0.6234908620653707 -0.12596393330367506
Guarentee,invest,Guarentee -0.0697228545150492 -0.1638146954200001 -0.018292680542568704 -0.6013021089267296 -0.02005548774278667 0.04825111136010665 -0.11143464554646322 0.020383752904458218 -0.10494601378294456 -0.07017104498550777 -0.02005513258651823 -0.2184132049386055 -0.9095113703305457 -0.025327657929346273 -0.07898387584202826 0.001659139026549565 -0.160551275958426 0.026839992931842426 -0.4791097391039199 -0.11627725697863785
invest,Guarentee,invest -0.06152180231859388 -0.101126550050505 0.001986893825207126 -0.4683077657797475 -0.0187977322807259 0.045055203134070965 -0.09212449305630574 0.011606840105633143 0.05349144601008142 -0.03526473726085264 -0.00979626281110941 -0.17360170501355968 -0.5682651956194058 -0.039302256227111365 -0.10860047739956122 -0.0009688698911986298 -0.2590812534578253 0.01856629171468986 -0.6446985203036639 -0.07278579126092444
Guarentee,Guarentee,invest,invest -0.04369206050948948 -0.18405158904205246 -0.048985365438820955 -0.6470568066505263 -0.015791913150414415 0.0026754245536968883 -0.09903689467876495 0.014332643766135501 -0.06477201577651383 -0.04109249544196852 -0.008633126329294954 -0.1996812906884338 -0.8745265928107878 -0.03687877120036127 -0.13675649177909757 -0.028615456930485603 -0.17084211872140098 -0.004533773101417436 -0.42029251150845515 -0.16591523187479307
warrant,invest,warrant,Guarentee -0.056065708507832636 -0.14513416285730632 -0.01640728665079388 -0.8811769224692931 -0.02177964006272782 0.004211538080295073 -0.08115644955047077 0.016126971356199754 0.00028222673617220073 -0.023528580627986618 -0.019413317743827176 -0.15111284733031127 -0.48738406013271146 -0.06131585641291575 -0.08211598493758421 -0.026875396213562486 -0.15744291039217784 0.043455478085320375 -0.43284669561994527 -0.09331411105715896
warrant,invest,Guarentee,warrant -0.04433849542093961 -0.17836293064556924 -0.05278015169824886 -0.9003513778765104 -0.024127815562146254 0.02371282580097512 -0.09761521200453978 0.04132610343724705 -0.007004629500971516 -0.040431209564361976 -0.002350428756530892 -0.22005836304672077 -0.5674992910123148 -0.06279663450721856 -0.13187907067860696 -0.020419361576223018 -0.2090412886590731 0.04253456890244517 -0.5139436683734201 -0.14894248316523354
invest,warrant,Guarentee,warrant -0.054814387060113746 -0.1267852231967939 -0.002700773065188982 -0.4668361062577951 -0.023763371848485818 0.002485920521879627 -0.056329569548926706 0.01740999886743343 0.043977018223230885 -0.05707566679765334 0.016145695413209066 -0.17731509713616916 -0.4555004287759936 -0.012949460979552341 -0.100918336957541 0.010727133861084417 -0.2196808597782143 0.01761570685818393 -0.5057437084660645 -0.07399341728811128
Guarentee,warrant,warrant,invest -0.03720529120862912 -0.1367718237002628 -0.00015341241064552454 -0.5512422948833134 0.01355532730808937 0.014014888297802378 -0.08298090202853442 0.01757090143055936 -0.04467115809200516 -0.06766818174199427 -0.004379635722470675 -0.21439595954576263 -0.7942092950864929 -0.014585433326174803 -0.06188140419152537 0.0027702491647308724 -0.11711622191031561 0.037400056867776 -0.3831745098784449 -0.1068749484875004
Guarentee,warrant,invest,warrant -0.05308134989268643 -0.09717272567365845 -0.007078885430532918 -0.4096015638610806 -0.0016806366136093334 0.04611549904503351 -0.08496807190980504 0.05622428072493336 -0.09289717897096987 -0.014085627886733095 -0.02132598895494763 -0.15040927664563938 -0.7528956995246314 -0.015508398087294841 -0.09681248727655671 -0.026300096415267524 -0.1327112018576332 0.028039579255503953 -0.3109471069603629 -0.10630527866778185
Guarentee,Guarentee,Guarentee,warrant -0.050344911657204124 -0.10781929934966146 -0.021687589618765702 -0.30500571831208 -0.005182664165632935 0.04774766393521226 -0.0721332248317321 -0.0006346938916460931 -0.08496276319496897 -0.02634610682706466 -0.002366387568673551 -0.09337454891166298 -0.6524975030259347 -0.0017971512616831813 -0.032982708453939226 0.006705135387194914 -0.11700978850939994 0.04367507571163584 -0.2966277873010848 -0.0832117772222965
invest,invest,Guarentee,Guarentee -0.03615834549417476 -0.0926103904717076 -0.001705958098975986 -0.36364374605931604 0.00926569888599431 0.020228416014264946 -0.07017519322646687 0.029019494717409094 -0.004492091578997716 -0.017088899213652933 -0.007700356245994262 -0.11282457128489722 -0.34266738441816014 -0.013304945869472373 -0.08096602602122827 0.015679072735495604 -0.1892194154027271 0.03997578667316731 -0.4696949505851931 -0.07096373566321433
Guarentee,invest,Guarentee,Guarentee -0.029392989358927556 -0.1144569710240441 -0.031106138431356765 -0.43244351640785306 0.0024404087610280026 0.03460509374428211 -0.050719816556791524 0.031294183228426704 -0.019118051656743594 -0.05486246660986549 0.015936972218570235 -0.16265638373442265 -0.6282143806266068 -0.003120352008716973 -0.06570867418268761 0.010474177348821905 -0.09159811303017254 0.029396687487919383 -0.33933104315599993 -0.07115180023244254
invest,Guarentee,invest,invest -0.041475683284829395 -0.048086026997913346 0.005604840485833775 -0.3015821527094588 0.013814069132401725 0.033106039780891265 -0.05447136186331398 0.025071422008556672 0.04104124783424312 -0.017187573242765132 0.024264911828894214 -0.09680433506763496 -0.355988318965694 -0.02532422944917303 -0.03576784119782837 0.01747577527297914 -0.14885016648617 0.009070583712561527 -0.4491851489785165 -0.057795569363466553
Guarentee,Guarentee,warrant,Guarentee -0.008125123779632747 -0.13726441554468022 -0.020704512427812998 -0.29144539631462885 0.020090284476786024 0.019882550050227096 -0.04856986537334074 0.029315770196175324 -0.021963553213335426 -0.0364038231007049 -0.007013993119279599 -0.15350928566178595 -0.5367913897767188 -0.047377948492304985 -0.04944015691363276 -0.014723629252064524 -0.08760802045554458 0.0035679553171297884 -0.29125205034630025 -0.06726799947678452
Guarentee,Guarentee,invest,warrant -0.042517262458077056 -0.07674649569817724 -0.0007542516331155958 -0.22544811412683738 -0.005795017074529795 0.014381001915662325 -0.06955536734152833 0.038271549053543186 -0.0701707430488098 -0.03134833910674355 0.007206755659874775 -0.11538555961504299 -0.4711690999732047 -0.01279389814699753 -0.06986311256798856 -0.0010109021956886688 -0.0882856118718209 0.031214340423340727 -0.22051257291167622 -0.07116011304603763
invest,invest,Guarentee,warrant -0.024528468044974862 -0.08530459877522556 0.004408476195277369 -0.22818292657471545 0.020242201280439215 0.028289514385147756 -0.008490896181889274 0.019653439880779458 0.007379800337499429 -0.012688780157177375 0.02000642201564673 -0.06366686129878706 -0.2551683258417617 -0.030220367876743016 -0.044021652701407156 0.021961005250687834 -0.14098760757985104 0.016715544064513938 -0.34094212931025425 -0.0268770815274339
warrant,invest,Guarentee,invest -0.031151150979418184 -0.08681742837657594 0.005747104985132501 -0.6049277235870615 0.004695890392338367 -0.0008299790475265705 -0.03277681771862296 0.027777359935849816 -0.019705467344993666 -0.017017519243510255 0.017476056660159143 -0.09409894109322144 -0.37293451106488407 -0.011627381082681952 -0.03578635523430931 -0.01297999852222227 -0.13635217657983784 0.027935257470498506 -0.2809536867013935 -0.06379736560385235
invest,Guarentee,warrant,Guarentee -0.008345282700014113 -0.07973356055321147 -0.001299017286702562 -0.2871861547396655 -0.005014323510735402 0.041460001195509265 -0.04246552154244522 0.04815699186354326 0.031267824534546636 -0.003419124568597695 0.016304210332485213 -0.09403406797437201 -0.27721342332166854 -0.028666941196600588 -0.03327787296323666 -0.011997598235878893 -0.12260908303712736 0.030893261144898352 -0.3332705379587154 -0.02957388929049998
warrant,invest,invest,Guarentee -0.040120584099242726 -0.09183227210389883 -0.014472050904724514 -0.4586888229306803 0.0032575165386826608 0.04492774384256946 -0.02001858523466355 0.0007854483539255144 0.031851459880950464 -0.03478282445211728 0.018375679340680757 -0.07745639906911722 -0.2767171507125492 -0.03024579107520906 -0.04858080897769966 0.0032863876036411856 -0.0853948077145761 0.018149904448395558 -0.22011913726041696 -0.05154346057391741
invest,invest,warrant,invest -0.0227054577764983 -0.0216283697916033 -0.008248577349076433 -0.16519089821854338 -0.006608044813780413 0.01569120035712915 -0.01373297930054477 0.006054287866369265 0.0030773768663594804 -0.004286541854632652 -0.003998187140522929 -0.06543596396837113 -0.2576775157075769 -0.014640411668700696 -0.026298190887521306 -0.006913996311489545 -0.14268537144014398 0.0311071874409322 -0.36881366569254875 -0.04206313194122821
Guarentee,invest,warrant,invest -0.022628546459255123 -0.09773674103189939 0.008679936039810796 -0.25654116873900207 -0.004757943858883015 0.012698445515707925 -0.03508884211836434 0.033338441370720534 0.007800353611310571 -0.022368302289645283 0.012979155632182592 -0.09907020306668377 -0.4671658011201688 0.0012543104586002008 -0.0336851724897416 -0.0038346355218497833 -0.05268341429698242 0.032447519475241764 -0.2102390111392767 -0.05132704376090154
Guarentee,Guarentee,warrant,invest 0.012189785697859544 -0.048074392287235125 0.005102111250566808 -0.20679073008625076 -0.006337989308163428 0.03262426420871038 -0.019846134333159442 0.041560802218498706 -0.01268487941566916 -0.015774182457167718 -0.0037233696865592624 -0.08572495977412266 -0.44304565504894383 0.005647563632221502 -0.012860324129709624 -0.010036069577264847 -0.030112605860842148 0.014124149665695643 -0.1659971256143389 -0.03516370017416516
warrant,Guarentee,Guarentee,invest -0.037479708959616824 -0.07344045601720861 -0.011133781962527598 -0.4772262377497297 0.0026756802427750593 0.029438479680474614 -0.04604413174420705 0.008740801698759746 -0.021494643249426876 -0.009436671218364357 -0.02020094029710933 -0.08703577587886382 -0.2674118413957511 -0.001031947216316638 -0.050680853897454275 0.0026984610243165085 -0.07296921349493564 0.009770162702695607 -0.19716184456407526 -0.04630768935914778
invest,Guarentee,invest,warrant 0.015997037702377273 -0.05753468289978925 0.016562628549015038 -0.1561294144330623 0.010212602854739522 0.020458281854114115 -0.034861824706120134 0.04685365114611969 0.04524970022869479 0.0070380773926398245 0.02869927165571671 -0.059849287769131204 -0.220339539678426 0.019434667559818267 -0.0077632990365680485 0.023621309205376032 -0.058111434938603976 0.025033355002552285 -0.24806291325426194 -0.03261481507606134
invest,warrant,invest,Guarentee 0.013183386558599524 -0.01691195813450834 0.028185149825454465 -0.15063107394031577 0.0008786912874352847 0.0278058028167972 -0.02352550405252534 0.03129987290099021 0.04195600019900936 0.014067105324279554 0.02774396309143582 -0.050509938444683336 -0.1567624972550937 -0.014381446096652846 -0.0045473555865097135 0.029633959544624208 -0.06705395078725816 0.041739560410769365 -0.22474352767219202 -0.01619605412327843
Guarentee,warrant,Guarentee,invest -0.026972004579644323 -0.05203394924139514 -0.001721290957104421 -0.2017746134798601 0.021682695126051123 0.008493456563597613 -0.009867185604429986 0.013361568849283112 -0.01135051183518557 -0.020525204618741074 0.03621007421362089 -0.06693080041404596 -0.3117603659019846 -0.003873509909370555 -0.02072715173421946 0.009340099969144837 -0.05035639991072695 0.05141143933779896 -0.15892649159619168 -0.054428290307214876
invest,Guarentee,Guarentee,warrant 0.017468371917558317 -0.036782310181275334 0.021551015111478302 -0.1420199026246044 0.00795380170682205 0.03771538118446077 0.004595126353212243 0.03395759902146723 0.012867448920458619 0.004040464540957498 0.012193753584893592 -0.04930706074676214 -0.1976935965992748 -0.013348260085009436 0.003358310684563964 0.0323002343116235 -0.062069853527599805 0.035528314036472095 -0.24794046567515396 -0.03726930604647297
Guarentee,invest,Guarentee,warrant 0.003457897505985314 -0.0447825590185037 -0.00044504077051672254 -0.19427900871508272 0.0065859205549609855 0.006740610321003858 -0.00910103802696637 0.020549433539249207 -0.012104039536869686 -0.007252899265114235 -0.012425940987774182 -0.09600470695238898 -0.4047793816377549 0.006382883571748579 -0.026855645873182968 0.02667171623092301 -0.0346847741186447 0.03131293560580942 -0.17295981987329578 -0.03897968011817538
warrant,Guarentee,invest,Guarentee 0.012957712018702326 -0.0755630459388283 0.018360863465950106 -0.32607626673668844 0.007271703225257847 0.04371903153300933 -0.020849054816006244 0.04933904111161456 -0.0016355051253952335 -0.01330960974741595 -0.0046416210265936095 -0.056297030232483516 -0.1753806010827564 -0.014575952072823533 -0.0424732580690767 -0.007320129012641732 -0.06059142464197534 0.0209492799610496 -0.1909356254372795 -0.041736952889145695
invest,invest,invest,warrant -0.005707819591651956 -0.028883677180915352 -0.007186899684218619 -0.11108015312876454 0.019674362242262235 0.0050676319640280245 0.0147303413344581 0.019505694234212324 0.01832258058322464 0.016611981484506454 0.01669846551347995 -0.02773109170368992 -0.16172943561864184 0.02908136757000537 -0.009327814256660957 0.027116921291908687 -0.09054116019375982 -0.0006469821876961678 -0.18601209032451022 0.004416573047637082
Guarentee,warrant,invest,Guarentee -0.022003146642771552 -0.04295350795365896 -0.003968005425754497 -0.24184031514959684 0.031144566276795686 0.012438092608645545 -0.004916295178796154 0.05066336248392418 0.004650422882123108 0.008039070330722362 0.012757453236470031 -0.055601704876485296 -0.3493385131776551 -0.000689317503860304 -0.036827610114660195 -0.00698569738295375 -0.036853499398905365 0.0071522428003130785 -0.1559460657269496 -0.0425370978920776
Guarentee,Guarentee,Guarentee,invest 0.004795883141012246 -0.04474381391110855 -0.0030759938010189863 -0.10754165779215652 0.003431891258297251 0.025703366935448276 0.01562102357033133 0.00344929066701756 -0.001897955620572197 -0.016030874445011018 0.01867718664332623 -0.027819810847579028 -0.21912489890463174 -0.006236721283742151 -0.034045433332806886 -0.0013927520958594293 -0.034750084343768424 0.013885289271792358 -0.09319710640882502 -0.026422524833352477
Guarentee,invest,warrant,Guarentee -0.005169415558891452 -0.04226957009826658 0.018370811079118133 -0.1676107393390151 0.016582683525395745 0.030835242179199297 -0.0036515916988426283 0.04066368099870933 -0.004024159592164239 -0.02484427439702789 0.003715963128840508 -0.025095031125263675 -0.2933002692759819 0.018842181995044664 -0.031963432889257605 -0.010547858383766264 -0.06185909890266981 0.02100369943045931 -0.12775185149235874 -0.011839321230436902
invest,warrant,Guarentee,invest 0.026638883426515814 -0.011577604325531681 0.013823447750368435 -0.1424842079165391 0.0042563205762452625 0.014600453018529119 -0.008572118279221407 0.03510677231770531 0.04268576075639877 0.0232622185804031 -0.006258414770877618 -0.04733369230786572 -0.13228961724660432 0.024731000388191336 -0.02463515479625926 0.0016837436860565361 -0.03024354441064022 0.020569227338690026 -0.1952760486045351 -0.03671495462406608
Guarentee,Guarentee,invest,Guarentee 0.012127140262128614 0.002226105632252473 0.03203195285180672 -0.09076744023986683 0.033620550307342414 0.008962464378889399 0.015666247581051135 0.006891849327941705 0.008954511048533896 0.031572242076389465 0.03830719788097363 -0.012958572481582343 -0.2151338476040523 -0.0046777389890784084 0.013270007357862339 0.008625624537175356 -0.020058017779474524 0.03066667960395458 -0.08172979221879861 -0.015160796228389015
Guarentee,invest,invest,warrant 0.0009372551502013132 -0.0033290444746373773 -0.003458209923008958 -0.06900952348002198 0.005308874485990505 0.019236335896236467 -0.03132504552943367 0.024518037349682064 0.0061591930664073175 0.009516113272108287 0.018942727462503004 -0.012577164619888162 -0.2527091135422134 -0.0037256083088430614 -0.0022991897414646224 0.02012068796705791 -0.029526743771727565 0.04230175145185507 -0.05666896799516617 -0.009146493846350743
invest,Guarentee,warrant,invest 0.021193268815246143 0.008247396372754014 0.020163151839802412 -0.11807385864877393 0.02003749874873417 0.02035926352620013 -0.019095162571715375 0.030897438002851215 0.017987264437551463 -0.00336484361326777 0.0025226514526600647 -0.039343157250213964 -0.1274014016110395 0.031510944220606046 -0.02114475963276577 0.010052677443010694 -0.0511565394612081 0.004307732865957972 -0.1474884961465507 0.001343043687407301
invest,invest,warrant,Guarentee 0.007347479578021826 -0.029678148545666926 0.0030154361969659967 -0.057834362261337036 0.028043210183341636 0.017687617384076804 0.006033649663122752 0.01731558562540201 0.04538854105764027 -0.008038622368962599 -0.003170700680495747 -0.026014125135932712 -0.052518661352896234 0.0037884437534256928 -0.01720147485799202 0.029805885429587925 -0.02540169887751804 0.012685568956595077 -0.12269543841662826 0.01975438186838355
invest,invest,Guarentee,invest -0.012676193019694967 0.021836533913231804 0.022144539567792804 -0.11346353900271958 0.03903185401815346 0.04162682941982355 0.0028921581675705028 0.03278730253572607 0.011838399751562133 0.013666669528427175 0.02090302043410296 -0.009153577003318904 -0.09975031598774012 -0.011349412177789717 -0.020133013364229187 0.010963519333740224 -0.08084385715305895 0.032144913490988886 -0.19792642065915644 -0.02147637504188792
invest,Guarentee,Guarentee,invest -0.015559108144698646 0.006641364565507981 0.02210387209496302 -0.07299507264475398 0.021171376635997857 0.004464392317586687 -0.016117108986556862 0.03363752444421545 0.04455320679968388 0.03038333869131075 -0.002535142004765577 -0.038716888376985364 -0.11080734039415292 0.017827072130184037 -0.0025751947554077006 0.015907555015557087 -0.04185049056333737 0.023103653905639992 -0.0986826722954063 -0.006783832276372045
Guarentee,invest,Guarentee,invest 0.0338587237341924 -0.00786598318039739 0.02042278580359123 -0.05433641489303395 0.021150903500121658 0.0253545666343787 -0.0067227881287143035 0.03530002503166791 -0.007939985110233293 0.03522329080457567 0.048647390057166694 0.020190592705975494 -0.09688103544359683 0.006055352959890338 -0.0036640659917184927 0.009696783865354384 -0.011965158927090038 0.03784217200802816 -0.03851554867793687 0.00899304229646671
invest,Guarentee,invest,Guarentee 0.02968105584286177 0.0229671647602919 -0.005305856042264834 -0.06341501477208225 0.021336872001197806 0.04996246028431435 0.016239410113143855 0.02293110638215194 0.021621024989022724 0.04083688164808916 0.018729085389963485 0.017026576970840764 -0.046321678081130004 0.015289417255759719 0.0065950599369645506 0.022885316359962434 -0.018686053268434106 0.0010609233769934636 -0.05904224432457255 -0.007988438331600884
Guarentee,invest,invest,Guarentee 0.02284533844848257 -0.004552590878449481 0.012783563671100569 -0.1008231517136017 -0.0023156929474752778 0.013015806278638105 0.01778788434004754 0.0329918233581428 0.014452899303699687 -0.008259561720503433 0.00770046589739515 -0.028849137873126204 -0.10127039736875651 0.026531037034825476 -0.008480314888046146 0.022526634788237656 -0.024400466335210015 0.03287956394867706 -0.04140425928655951 -0.0011914096867307604
invest,invest,invest,Guarentee 0.036504335734116836 0.01416448013529767 0.03837837818183261 -0.011462889195879244 0.028766369812814732 0.01565210299109962 0.010963906500269774 0.04957234167300545 0.03083493615534047 0.015937608191168323 0.025622592423902274 0.03165654866084078 -0.018890696825474177 0.03420608224790267 0.009104598452658937 0.03528091094497569 -0.012191135985664311 0.032596284861809155 -0.05688608990034062 0.03384960563277382
