8017 20
3387 2.5261676202545633 -0.1783351096742196 -3.2320624735983543 -5.0982574245026315 -1.1824163526307716 1.6246968692469785 -0.5536038323580738 -0.125536284114127 -1.154202442633741 -1.0008018865232668 0.10420814002238134 -0.07958897667475198 0.772468487103355 -0.3470415354831485 0.33904377465727675 1.9044438179269312 -1.6102258365075872 0.11398071848104954 0.3645966362674989 -0.38933052242921573
3448 1.5463524781928333 -0.1401533262202972 -1.8770716266091443 -4.930041116090015 -0.10204463065448376 -1.467785423032165 -0.5950652713856888 -2.263028002610719 -0.2749861859025918 0.6428762603405309 -2.3742228411709423 -0.0773784451337604 1.2852624294251807 -0.5704393935247044 0.16224216330772204 -1.8867879964871517 -1.7113703233584436 -1.3529401107466437 -0.09289075686711362 -0.5498674220874848
1833 0.452182271836574 0.033967614790201175 -0.3684825747531385 1.1709693912555097 0.0771141417945106 -0.8355344016358015 -0.5936509996518133 -0.7901329861314215 -0.2823973572741146 -0.3909489210327965 0.3198931607199184 0.2826262961395279 1.0981702232547959 -0.277495572882467 -0.23097804388703277 0.3656831390644169 0.2671807027995002 -0.19331333049389818 1.3143914425178815 -0.06224932298215341
5137 0.49719112441051005 -0.23902811009611596 -0.30644608099728526 -4.1527077814928415 -0.589663467749849 -0.18051316919368615 -0.2194988714412947 0.03838839387787691 -0.2882858699916841 0.3017984484474832 -0.26568933469439093 -0.19834751164689482 1.068726555913938 -0.4938439899708628 -0.177270219821684 -0.29903751518005894 -0.6036753462359519 -0.03192241181544531 0.6557536639769433 -0.300906816661122
7112 -0.028749132743730345 0.7646353974967564 0.023424118155072955 0.6087773241120682 -0.8083580357198056 0.4745604694810366 -0.3593687916114609 -0.7884408371111575 0.42773366079800323 -0.06554224088068443 -0.4969584987653295 0.12678176051926537 0.5933620494068933 0.4422502703549657 0.34769402308468395 -0.14521779061398346 2.4168691604222436 0.2893958512646766 -3.057916243605563 0.40964181050253706
3111 0.255102469060149 -0.15831266560641613 -0.28126116215805663 -4.288887884915814 -0.28080703191017364 0.34807431432268104 -0.12729854172335248 -0.5015303944597159 -0.3726626517791383 0.15917209223727005 -0.17338643424118458 0.17306042947227665 0.9139685406741758 -0.42755702427650644 -0.10429965711371719 0.4630535767610082 -0.38224636991881167 -0.04329487989129577 0.7639984436454783 -0.2088005656534047
1408 -0.31081761888007825 0.2555457887674059 -0.6027351745716384 0.14265939441280337 0.15162807947369675 -0.06828713095584174 -0.4756096155923086 0.16664030490589554 -0.19188624968082726 0.6207985097004332 0.7223576619747415 0.427691201524539 0.8692740393626842 0.05088943893611761 -0.21622870114449574 -0.16572777726260168 -0.3604243149657083 0.7295852844715969 0.4591961067284847 0.3898343034420959
4572 0.5283986055596928 0.04672207443653607 0.03466744091255061 1.1856161485314691 -0.4083897714894282 -0.016615601867319234 -0.036625375544985385 0.18497701142145118 -0.17646973232256058 0.170098124608031 -0.3955215878606173 0.23629180868188104 1.0356718107413239 -0.3631051022718622 0.27063424204248715 -0.15650942826046577 2.7703856602344965 0.31205821369821074 -4.1426846202141165 0.37435729685924446
7937 0.05005456506232263 -0.4368078050309011 0.21150080880502029 -4.153887680453979 -0.003899685447058583 0.19806733870617838 -0.4652754851293281 -0.2350713474038525 -0.5039810133753017 0.26811194732004484 -0.2897793103308026 0.0037172452980083386 0.9925397050417595 -0.32731576844313337 0.1326188481108629 0.4502833723596648 -0.16554556649001193 -0.04335127310865714 0.9162894046051382 -0.3957081692480523
5494 0.0036163907693834278 -0.31928565319034674 0.1374168067758236 -4.06139051097323 -0.19139535810643923 0.14105999126223615 -0.237209181691421 -0.21352946226907715 -0.4128719890254242 0.28274709711017937 -0.3289014506212904 0.05848534551569726 0.8922598429223698 -0.20877471310275414 -0.12396088641497573 0.2310246925462466 -0.22555857051218203 0.03158644953812627 0.8316946823285266 -0.13925239258426728
4242 0.40920114216227577 -0.39039121318449294 0.2528652668219655 -4.1996194607003945 -0.04322043750820877 -0.26966000922296945 -0.3114445922835609 -0.02324242962234179 -0.38359912655073125 0.32132093860863803 0.12290195714185106 -0.055266678537191256 0.8491044746161976 -0.2787046887160062 -0.22802978469341312 -0.016671785631336818 -0.3558471912487505 0.04902103967803023 0.6850840265426318 -0.30627809047577986
2880 0.3788006862983333 0.005564613684376018 0.030426108874120946 1.0671116037605473 -0.05881122747363882 0.0638634646183727 -0.30961276879231825 -0.01641230683265734 1.2658105520299128 0.5476473421005669 -0.366813527542866 -0.2520302402230024 -3.7839002140758087 -0.4731803767110146 -0.13811640106227188 -0.04498335747665857 -0.2353072908066106 0.16495850819439306 0.9089419546539778 -0.642781709353613
6841 -0.3157989536384804 -0.3839423284652161 -0.7086376726166813 1.2144569863181178 0.07286807000830779 -0.09350911781441042 0.011650859144104695 0.013559086160607553 -0.5766939323286604 -0.284756624964559 0.4811220499301589 0.6857833196167586 0.5787986174169693 -0.4894664368449415 -0.7097292431805869 -0.1997460570906119 0.49706262035752746 0.020121560759305206 0.07781280314629291 0.42111678946384334
8480 0.268697317449396 -0.050986002279188765 0.3577534807426803 0.9504022107657415 -0.2041075468629482 0.01211597166224564 -0.37883229021205445 -0.11802874389504936 -0.3276085215042202 0.26090271747094995 -0.22719475306428474 -0.1458404300442868 0.8201048807325928 -0.36918787412573423 -0.08826138604535178 0.31519566041227987 -0.2948821663067716 0.09387098718377329 0.586476778536459 -0.07275540543671294
267 0.362036392869875 0.07776106294091992 0.0044384437895372865 -3.894415598947905 -0.18083745948736987 0.13086037071071574 -0.14104290958873827 0.11594715898623097 -0.3240480657236834 0.21420620044522898 0.11959298205584994 0.2930584757933542 0.6803236914812659 -0.21230426824186355 0.04687202562041778 0.03435134157060516 -0.3826475460211647 0.1075122145614647 0.4814120958229688 -0.2724768168692911
4388 -0.21667476219070897 0.005843964868667072 -0.16666050955524217 1.0793404087432672 0.02037800416970135 -0.32712231241262474 -0.33204211460219524 -0.22859260950766336 -0.48608940118368693 0.29375647627928875 0.2434137733323319 0.42765709835056687 1.0766115350241479 -0.1529525018580809 -0.41433018143152334 -0.0735756126737295 -0.2288198026627308 0.28961229361931473 0.21129849086865932 0.5312702508528045
4165 -0.0014654723112926666 -0.24382572859764265 0.02776475486726651 1.1401705611431 -0.08199335772392533 0.012928645904684857 -0.3732299949180885 -0.08624392121231608 -0.3954432258017244 0.33981160842330654 0.06534623199880088 0.46816643051628504 0.8501332034684552 -0.4539874803976116 -0.24901791394275774 0.017398798570435272 0.17189138969716983 0.03391247826678822 0.9332629629369711 0.1690095502863991
6102 0.23421147924279823 0.6470313471487614 0.10777073681574423 -0.17037577877086627 -0.19697264746491927 0.06409310186146192 -0.2805195547233447 -0.11006118830821214 -0.38952766804989714 0.6737958590568777 0.01650719369816138 -0.019827323872151383 0.8521567052595181 0.14159219596621545 -0.15685004571859926 -0.09167174779224785 -0.2561214327090745 0.19461011928455338 0.8098991053798864 0.007469450445039424
6373 0.24385509862956753 -0.4331619104425997 0.16144553403114809 -3.7487936247451925 -0.09559918022340223 -0.1043445678631624 -0.06871074075856896 -0.22188912722913612 -0.16695973651171234 0.11636118722069025 -0.15582277070851075 0.02600596394448926 0.9404761390291853 -0.1705451933283239 -0.2763826680268917 0.18502839110619412 -0.5030770027433606 0.1208316044118451 0.6080541703454937 0.0018641903004334784
1772 -0.04918156470888436 0.10018950935840015 0.413170495116882 1.0148086227703168 -0.16093267391052513 -0.02191965105151655 -0.23688119653010437 0.01150486491642118 -0.2594788045802367 0.32119300685305413 0.01115240791788216 -0.08293327219349941 0.3672125027216342 -0.4509684822432498 -0.18085793098351421 0.2517393190197774 -0.5013050854077578 0.11935080712792626 0.7667605421662622 -0.22661585746588522
3546 -0.23544034541268508 0.27684650965149715 -0.23867893199875267 -0.11265774907651416 0.1390514771535544 0.1452559527633533 -0.435757094315914 0.03176108186935994 0.13550848549113814 0.40529513464879874 0.34994327530260744 0.15697825971889326 -0.22328505223279396 0.12297222210433738 -0.012058792589831112 -0.31988659232729466 0.473424832484032 0.0825348347309937 -0.4430654609551741 -0.2279248391170063
6334 0.22069230702890028 -0.08681666353460904 0.24375478249387383 0.6096753726237905 0.04154092082708884 -0.022609040554713612 -0.1875553874448996 -0.1348021953983445 -0.12499849240747335 0.06614825822659427 -0.37849749483330747 -0.3216547389576797 0.4396999883203424 -0.39347500798282775 -0.271361885163751 -0.14638165972487804 -0.33130780491912587 -0.043727127620725975 0.2578458680034423 -0.514697299619468
1850 0.38764243858416014 -0.06439027651204232 0.09808723315743503 -4.017866414915436 -0.15215541717021078 0.06045861221078804 -0.17148639280609967 0.004743438225142334 -0.43787123063259203 0.2726719196401934 0.035013035468035594 0.25906883501953265 0.7845801511930844 -0.21484287494157578 0.09099826392870503 0.05511750218017647 -0.5988500663391629 0.0845711546265077 0.5218778066390796 -0.19045995242886984
6452 0.34564134092691856 -0.21029431803232718 0.0982173863787263 -4.132637588391843 -0.16205724979485894 0.057151589251184624 -0.14222271407336237 -0.005941395317811886 -0.26901182712812505 0.16708362704959162 -0.08748671606762815 0.16806351875161485 0.8696855950843767 -0.30581121050077636 -0.1671422860344483 0.3765059179165669 -0.5136501429115835 0.10441406466839956 0.5633285454378925 -0.06890559702621733
6830 0.21144763526581584 0.32250958509966543 0.18544811029022182 -2.9894626911750426 -0.044365397738997135 0.10632980156665936 -0.1741851695992903 0.015092582333941456 -0.1395638590418047 0.19816354096693603 0.007780181913489525 0.051008841394684715 0.4601985979561338 -0.002508356690192263 -0.1013010055972988 0.052091050466848844 -0.26749133986209706 -0.08704651389822454 0.2854294061759615 -0.23156602511212804
6868 0.07134951490606072 -0.21894539869254862 0.08301385594864287 -4.116873962122435 -0.18760569381031447 -0.052386157597315124 -0.1957732584114752 0.12088474123145496 -0.03978294663057154 -0.002708069324238595 -0.053826158975920115 0.0680710533689465 0.45582403779587105 -0.44978862852027945 0.0005199607803280928 0.12953542418516215 -0.07951692040342408 -0.11496104453046171 0.3048367025145262 -0.16157776644924485
7441 0.01865871787828721 0.26578392568505876 -0.09831996322438911 -0.20163883449066963 -0.013051579839454363 0.049756355062689134 -0.3346181182627634 0.09229787108079865 -0.33234711245023313 0.5673921369932632 0.1418431954380574 0.22733408679512926 0.8082620845221005 0.13455079874410167 -0.06134939844568501 -0.0683156770940556 -0.4622206759541233 0.393804983329245 0.589683193684562 0.21353560777648048
2940 0.45367277811416384 0.04959833013484164 0.30453300616212375 0.6586394514906374 0.020662814209973936 0.024548722973723635 -0.11479902331987074 0.06687788123939907 -0.2510831236972666 0.4640279998296095 -0.3228376832964253 -0.31422220574123233 0.6948027561570718 -0.3365158998644874 -0.2097857152265338 0.10423855542276107 -0.5061511847873947 0.35862833340716105 0.5646998186938311 -0.17713405616239797
6953 0.4141656826496486 -0.13251999192306024 0.060813571330716326 1.2347284890629528 0.21612815217104234 -0.1735745521156259 -0.08261442691971536 -0.00013237386059004232 -0.44855834986534526 0.26068062575843665 -0.19052551631890002 0.11316349149853863 1.012652123135249 -0.25368611558441584 -0.4200817680703444 -0.06387519892476891 2.7160042829040543 0.2010833615811379 -3.4873500077216026 0.27858955973170996
1385 0.11435483241484427 -0.22624218800711268 0.07557854415835268 -3.8714959335879233 -0.2582159497773108 0.14204265304421554 -0.22135607740567248 -0.1903667117597161 -0.18113284304262614 -0.025646535443805345 -0.05239454529603128 -0.008791063927620435 0.7697416526425868 -0.37894550181884384 -0.10434312181181413 0.40854554433649504 -0.14630566372246376 0.16248967825947871 0.6939132495144684 -0.16649490950698814
3189 0.1621786568822225 -0.13303019174084885 0.30306871512864336 -3.8527813851741954 -0.20244743205293816 0.03710988765935262 -0.281579011693548 0.09362368961045532 -0.2633968776583594 0.22325507005841383 0.2572530916749889 0.10389001931791506 0.7002327143185147 -0.2814904866093449 -0.23776906325977085 0.22037408800105326 -0.4408608232091418 0.2569227777366346 0.4995748526511953 0.04140691618068121
2139 0.16721430830630424 0.09906383160916107 0.30457774374469765 -3.566092993732339 -0.0704398605922719 -0.06708981368603992 -0.31377893013894126 0.028511830852531225 -0.32430848857830546 0.27824133482284696 -0.026674564635379067 0.09212011176467813 0.8575860621736581 -0.23951686239278622 -0.03801633664435599 0.15411075167557645 -0.5325787702362149 0.0795947802083869 0.5038263874717401 -0.3105463330510448
2761 0.3379649991223302 -0.1824834935076126 0.09401940503991266 -3.717728644159669 -0.1770956907832495 0.009052292297653572 -0.24636514915238786 -0.04169435395321993 -0.38504146886023466 0.07129645083441445 -0.257277993134052 0.0668114983478999 0.9124531824961943 -0.3448760366962443 -0.07166704324707066 0.17618126376367726 -0.3343764606165336 -0.10511526627449595 0.725715859510244 -0.11450241819597969
1599 0.09717667606139319 -0.3195395460435937 0.10698327628805154 -3.707106050329823 -0.17241046037290592 -0.056432458600678664 -0.29523046774832196 -0.01264984533808048 -0.10453422913677883 -0.055886422553157705 -0.28293864515618705 0.032113755833411 0.45722428269181997 -0.2904702054308418 -0.09892906552088991 0.08140369813033402 -0.1907261892757084 -0.10786307949301907 0.31133491340746117 -0.14632080638806078
6000 0.0652802972915353 -0.259965788685799 0.04184661042677445 1.08583282200063 -0.08162861809515769 -0.13965631370647955 -0.4284393987735737 0.11052236099180941 0.35569604514431874 0.15900257050071856 0.04912786769348233 0.5938763075189212 -1.6585732003825953 -0.24372268761029817 -0.2082404976940037 0.25200263191571054 -0.6521917597401562 0.12973052143648725 0.43755041888792534 -0.14694724891746572
3014 0.35376959888864307 -0.1486830025167312 0.11340682349258524 -3.8411726182584416 -0.06273772609030737 0.11848226269711562 -0.1723940890519352 0.1172606605629803 -0.4231383000580633 0.27413848591260637 0.050292354174707045 0.061558358865513314 0.6872649154450434 -0.3534842660586796 -0.1544732751944224 0.0657721130315535 -0.47266695473887765 -0.04464416898637706 0.5177254655536878 -0.08872328865990527
8222 0.26330060580040227 -0.301286717503443 0.14136265973671666 -3.5817075664289866 -0.2492749484664697 0.08745317779144945 -0.36827532619505005 0.07963792684256892 -0.2957093525319278 0.1384469073455613 -0.11385565502759042 0.1694207999573971 0.9884889938911682 -0.07687976285852977 -0.05618704025267699 0.3302734949613906 -0.5280474151115234 0.17217184895950569 0.63512199894871 -0.23514989919973114
885 -0.21626381344592713 -0.05947980285019345 -0.22484446009430648 -0.1695144655848564 0.2610187057596625 -0.11099862555801493 -0.1253141869805519 0.0291270988743053 -0.04987126651747863 0.16552330477822066 0.5415275034808075 0.14170054054128187 -0.09783168960330971 -0.08673440769452632 -0.09740458878112508 -0.1148427362984908 0.025570089447959573 -0.030803161476868075 -0.44199781444610053 0.07813758563349826
4317 0.08162393697944044 0.5322420582041584 0.015896099175694272 -0.17353978214753904 -0.23067170669492804 -0.0360089822936565 -0.34279700142622765 -0.07083189808477405 -0.3409900310774801 0.39112507861548496 0.13420022165472648 0.06378444770306306 0.7792197350883437 -0.1314134729317074 -0.3056848890314029 0.03081839518954704 -0.30412550243821007 0.2976592364053886 0.4359536644111375 0.15096107589498314
212 0.12804293572568146 -0.21052409137248 0.16527269442423137 -3.9113938173228604 -0.19281578516881903 -0.07213177523900993 -0.14417208501735848 -0.023425450156298138 -0.2952089943979055 0.2072592808735989 0.09086401410145231 0.05622546071064584 0.9493431293664482 -0.24319460871549922 -0.38838675107210585 0.18260101746829463 -0.5032783503513256 0.14196797588651097 0.658720743365275 -0.043082447740842494
3052 0.19010292449693797 0.2867802101106005 0.24302985988256698 -3.5727831151999627 -0.21039442656523294 0.0461544717636937 -0.17116079371081688 -0.03242140598886095 -0.3963211941940171 0.12597068290705055 0.06266360775693386 0.1387968503105015 0.8242062258539213 -0.16493138102830432 -0.23114054529174022 0.15098354103310874 -0.373602078478545 0.10871103758376983 0.7043380541607193 0.06180226281642653
2134 -0.04292566846826771 0.1831302383583345 0.23912219415902414 0.3649890750522645 0.0797470448114483 0.04985839567295658 -0.19243221537492317 0.06656645692527258 0.07626559131195676 -0.040483218239135345 0.14799287247110338 -0.06748446140314851 -0.3645877115254338 -0.30457685704122445 -0.243042841906343 0.014851532783937148 0.10635428474945702 0.061523648647831226 -0.4254507885012812 -0.20982763541626862
361 0.1829154589687859 -0.3666121491906528 0.11882420902673343 -3.5159912088208736 -0.14105905683044873 0.014968592243357889 -0.32794685809916746 -0.21211504635891149 -0.33354006311879875 0.17596113425267823 -0.29057106642892566 0.0407317710085673 0.9488477185193137 -0.459007394182471 -0.2896944189124777 0.23650155976276613 -0.46607526263530225 0.016652069037740448 0.6695325213499931 -0.0814291847738852
6781 0.24093183063402 -0.2864714618317932 0.2858462929358805 -3.8196784035021496 -0.07967215542230364 0.059608777803815564 -0.33122048074748756 0.011363133587616163 -0.5058122133883612 0.39224043940823317 -0.05381699108415757 0.16245411084914485 0.7180796272587852 -0.4201743178349124 -0.03839574908523876 0.07387706113699942 -0.5488365232210575 0.00836200388607254 0.5434083944312008 0.06425936785196992
26 0.08459305964701676 0.4787282947587769 0.13882328186670068 -0.1901093997181995 -0.18763636145138168 0.17559404807618348 -0.22460683565371242 -0.09495414475814634 -0.37242906450607827 0.576605595992695 0.07180408078246227 0.13615485688696577 0.8232044888319772 -0.04136675277052672 -0.3423456219226557 -0.10138057981780331 -0.5331366747538848 0.2610311531905339 0.5979831402126004 0.20234049444489202
5728 0.1940792318481095 -0.26093106736807364 0.36525786079144346 1.1630235928074562 -0.08690123632489812 -0.07096000904598751 -0.3532946521187141 -0.03358803802507043 0.2293936204032416 0.12677613241760904 -0.34394654775332634 -0.15743569462769605 -0.25427582083943007 -0.4439717419791202 -0.05947925929712613 0.14943040891706957 -0.5543475336573341 0.34755295023311444 0.5137830906893885 -0.45389524267638315
258 0.18627344776394014 -0.0904339420912008 0.3066050369414793 -3.8374645947790103 -0.023095529059639245 -0.06331902379295662 -0.31675121110792964 0.062490574764215566 -0.41507685804279737 0.3025493858440754 0.05654574240418257 0.03019607148119249 0.664565425042094 -0.20684029967392603 -0.2430396147172611 -0.044507030504769375 -0.4009156141003264 0.12708935351323408 0.5453639495150198 -0.03526769846845589
1140 0.22170659822289976 0.02505047506155028 0.12469033923184264 -3.6241462419926918 -0.12630717949089412 0.01906024644920222 -0.10714850876670934 -0.21557605232343016 -0.14925419489636463 0.15979824569390277 -0.06886056361879256 0.11756718011778157 0.9043773269815213 -0.31774213240057925 -0.20138821741228993 0.004203701457864272 -0.4426285239115602 0.1686051965806109 0.6104589854620571 -0.1002364369090362
1596 -0.13754145408785123 0.12320256646128755 0.06375924590239322 0.6095111756924501 -0.07428361772944875 0.05694487573270947 -0.12756661580722564 -0.1667067103683779 -0.04409536618498918 0.22007955059782466 0.2841108577021141 0.4884710446692925 0.8547910880953017 0.04029641075824862 -0.16271189060635813 0.11180429832584952 0.15667377665813767 0.1872404781693666 -0.6559897585899878 0.5326942369011949
977 0.4340946196138235 0.27975453151558205 0.0323596595965302 1.0809129460816058 -0.5596151259442265 0.07459652345366459 -0.5092940562416339 -0.24217969466922162 0.8736058016229755 0.6653669845817627 -0.17239005066097143 0.5037583070207454 -1.033826745072064 -0.20489131568572208 -0.08209900929596053 0.40262671804068756 -0.5165456517915368 0.4056063777609732 0.5258536597516507 0.6166930077680434
3388 -0.07093226012766973 -0.048798508817210665 0.03698896539090772 -0.3228703455909402 -0.14346194318408792 0.07652007515144506 -0.3523245696333834 -0.16917116545003427 -0.10005678207167575 0.29034554134278134 -0.0014245226950163714 0.1827017001071075 0.6530270546701265 -0.2447287982346656 -0.23255422151925234 0.1069349066179122 -0.3753977072932793 0.2686670525413662 0.47595751849296025 -0.075793425946125
7302 0.11557533794178042 -0.22130398363717663 0.337750303499274 -3.5565993274771324 -0.17433422285811834 -0.21384155742638622 -0.2595849737653061 -0.15360232401573204 -0.2625816786632982 0.1321865057471421 -0.08765362982763299 0.288579563652336 0.7717670379129141 -0.45525785264564395 -0.14252703976278794 0.09095957185750425 -0.3461720372565716 0.13547086863444469 0.5983458787678264 -0.226133611827721
5878 0.26134207228735135 -0.23090074618117387 0.14472675283731518 1.0432589539101096 0.03656558933776592 -0.07909406713654689 0.07455529013102323 -0.12239588290864788 -0.21239954723513396 0.35894028216281004 -0.3398901838137664 0.013296524012354174 0.6333369782125366 -0.184150763409294 -0.13553116802764373 0.09805924373469571 0.4019675071867489 0.1674241469805293 0.20475550049721578 0.18572079065674904
4941 0.2835061590017899 0.28487472169044764 0.030186599121034486 0.8210944530120611 -0.30250110617936915 -0.027079193583674194 -0.4578345697650459 -0.08962450144222169 1.6207936441973172 0.32625358108792074 -0.09058125935352652 0.5142928275253494 -3.95605098306961 0.016350275483288372 -0.3278546897194854 0.32109666596243747 -0.2570817908603749 0.03650263178263712 0.6364477250243421 -0.19484177586394352
6908 0.10158748737065858 0.3342330115953834 0.1874953131931733 -2.771015516583696 0.04395857671706406 -0.014604498659322361 -0.1365588231886148 -0.031798359163191674 -0.1531553090734344 0.24843386512537358 -0.2897550098344815 0.27559973922860936 0.6521191831964649 -0.16903709341213752 0.019892623609390897 -0.02790358409642914 -0.3208943897678703 0.023360989342074475 0.439106167272581 -0.17266490323004502
3036 0.2137599404129939 0.6497724043785691 0.31495017051739166 -2.2415290691424645 -0.013017866918684869 0.09197232015719628 -0.3668389298672799 0.10289015004466197 -0.38137872223920954 0.39381841929353356 -0.21155101530027717 -0.14281867995010764 0.7097353123454632 0.0019338660284128817 -0.29454539437886473 0.19313048488151313 -0.37127465366903845 0.10057352881968333 0.5391813033912364 -0.09888468830977236
7224 0.23884366370033455 -0.18177679728812135 -0.08513897984328343 -4.006788515091876 -0.11953991293525423 -0.11178644494598242 -0.15497007936066046 -0.12305843507451326 -0.1058316121342723 0.02634103531645167 -0.13124807672425978 0.3650482471152497 0.6883058898338729 -0.20323776003533933 -0.09052556413818519 0.10838718384424022 -0.46221222792462474 0.01965944287695724 0.40707961421209127 0.06994096974699068
4453 0.15098934581041107 -0.22922698022873203 0.17342772572432463 -3.7717282156678937 -0.17639983817499516 -0.09186212100762638 -0.059098939293602555 -0.09427134329948454 -0.3124513735009464 0.22409426426202958 -0.05284378007460766 0.2719903022577089 0.8147829084818159 -0.08169116585142987 -0.07747352546326629 0.004062385716781499 -0.4524155743704991 0.04912522380969534 0.6580380396730774 0.37346915784706125
3618 0.17791296923890565 -0.33529562172470545 0.21373186366628427 -3.7080991509735397 -0.1168801033383497 0.14667010303282327 -0.16986481473489706 0.08852863222790236 -0.4217322929723644 0.3193015802884755 -0.10673095464532356 0.10380176743037499 0.6125900469431961 -0.27739493621415146 -0.2588915735203113 0.1199147657349942 -0.38960119729816484 0.08897281641103277 0.5664058699252912 0.09399209384106061
3425 0.4196960668031257 0.04850001649795084 0.34351209766219526 0.5978899011794594 0.012727230836032239 0.01753983919361588 -0.35257478365229933 -0.021197703612405073 -0.3027673845644472 0.29641856049356663 -0.25429311066478477 -0.21914478078738137 0.36242373089090724 -0.3120913632808283 0.04523272426102678 0.08247061780001613 -0.10619451311075288 0.06206094900431572 0.423894690138065 -0.1844029360486758
667 -0.1710703218344625 -0.3039317066517786 -0.23496427912384013 1.0498882559491194 -0.21987735181948143 0.06469893274769993 -0.2456969736860253 -0.09425532981312276 -0.33406535169446233 -0.19279506762562465 0.17880583612795203 0.6045841666647608 0.41048650288589733 -0.47093136650263867 -0.5610625569860784 0.26643115089587954 -0.1584551915665147 0.08748733815445972 0.9544271032426999 0.31146672025653405
620 -0.6451164955320139 -0.5917064102944978 -0.43640599968963845 0.7504530749114502 0.2584391427143074 -0.02140004749702751 -0.1643118844409303 0.07760550036132409 -0.23329045763016962 -0.6191192602600801 0.6597372424711302 0.37216721730789365 0.38103346625932544 -0.5969484801107674 -0.37302835015007596 -0.32281726994950327 0.7814066030919528 0.0691307254704964 -1.5400769498152356 0.1622077275907694
3910 -0.24678648132971476 -0.5533424153453786 -0.02533963928622646 1.03079453072432 0.10723907454560379 -0.024402312619703416 -0.373341367582559 -0.17487452462280484 -0.20828147410592135 -0.35094157023534656 0.5023436068635576 0.47917804259248237 -0.5883845465675807 -0.9188619122425461 -0.4964562008612499 0.018208831822166784 0.006761187821725634 0.12186010894904706 0.23484302372279134 0.013965828747516836
4022 0.1600187822034065 -0.21511172982958932 0.27088525441293754 -3.538821476335082 -0.08695893206225411 -0.02873436316741939 -0.2612439678164652 -0.06204529541128462 -0.4357667407236606 0.3704315885525623 -0.2054567008303186 0.21633285950635747 0.8663887803421675 -0.39877215174649483 -0.21034267121876574 0.007675210641601723 -0.543665077257881 0.07469293550122678 0.5671318603026636 -0.04386113674832658
4033 0.2080186251715791 -0.31846665432388616 0.12657447553560253 -3.708750355368257 -0.08947399965905856 -0.03007036510185372 -0.2537695386900272 -0.09084051121894354 -0.28553900324539105 0.2746640919096861 -0.012150662704335034 0.21151866792725763 0.6692882322149689 -0.16961419175843617 -0.17389267660756125 -0.0026419098302223106 -0.4271686156802649 0.04069346815440312 0.49707909925583216 0.05686331263044243
5216 0.1878640968645601 -0.24727096124457795 0.14984278004107165 -3.6724999040456976 -0.13354975183277898 -0.06513712992626498 -0.11990011050336606 -0.1277766819813637 -0.2604300071585077 0.16510780707968403 -0.2743832650895897 0.16098769247208236 0.8251663994422912 -0.2852917237136096 -0.4081699673811357 0.08287359251197503 -0.43856706043779237 0.05287138132500157 0.5947347824315298 0.23837895540669574
5937 0.285084650443971 -0.2550546174319405 0.2586703628562514 -3.2900260308777907 -0.017371661039346783 0.08140111060051385 -0.3791009293140103 -0.07838277824464307 -0.3698178085976763 0.32528293867936287 0.018623844142221027 0.25046930911654885 0.8369272747409072 -0.10390998434349798 -0.02673430447937424 0.08377800061291032 -0.6083808585816298 0.15094932888101725 0.5698474993371694 0.2188707808569147
3176 0.24174042965786693 0.011431658311329161 0.075346481565166 -2.7084787975041067 -0.0634621010883479 0.04864936953129696 -0.09473460912381736 0.13048049424728603 -0.2749600600938147 0.1955838198502431 -0.30687576013285045 0.1909395977598889 0.7936718699222216 -0.017290156937711115 -0.09497214682510563 -0.016028704504109568 -0.6029346890987238 -0.06272364687907002 0.4729262726268698 0.10642502567601074
2859 0.1861493069647995 -0.3126333068645208 0.232744305982992 -3.6352808933162684 0.015075434367740071 -0.04958970350007927 -0.2274723167872418 -0.06062141245487169 -0.2668811412493076 0.3163035623088216 0.024708318726702677 0.2055258147659514 0.5400085073636787 -0.2332779899080819 -0.2625480645008302 -0.07499892060142853 -0.4333672145955523 0.18985451666846442 0.35311949264627507 0.021346217253373916
7724 0.25056849112480717 0.15191788772557555 0.06796277656539475 -3.3676616793503595 -0.049602938055625226 -0.03857012415449421 -0.41795119479081805 -0.09105331853870889 -0.40770986874477555 0.29605675902281564 -0.0535598738926495 -0.036455387136520585 0.7275473504098201 -0.35261531401716933 -0.3480128400392529 -0.03833745248157556 -0.4009682009956337 0.13906860887028955 0.6101095762315933 -0.12074006448409391
3886 0.2710091593539555 -0.16411759734989637 -0.047852832743338604 -3.6051474314119694 -0.15675316467984535 0.06018038773549158 -0.35614417491571826 -0.11375743653767302 -0.3904001895135249 0.10508504091843127 -0.25295866195392913 0.06062792462929766 0.7246147969603872 -0.3306396261167447 -0.10366550628688861 0.19014303825540557 -0.34703789845406935 -0.1381558227725666 0.6180349384205824 0.09405446311351834
6832 0.0899878346303244 -0.14336501795531983 0.16807833526479313 -3.611678079494107 -0.1227835189076722 -0.024674645164726713 -0.1794598131809013 -0.11922849751796545 -0.3422413409699006 0.15505225802613 -0.16274191366011823 0.18620719150025508 0.6203220016539199 -0.3861745237347398 -0.022293670095320642 -0.1073426425608025 -0.3650845369957551 0.1498743612580671 0.546689376583778 0.2047562791123081
3848 -0.21253795773843118 -0.5278001867120861 -0.3027991739342714 0.9948790022069616 0.06967709281746223 -0.10168087508529379 -0.22276072757088936 0.06142268650960147 -0.4291961027878613 -0.34587917915054484 0.5232410676173962 0.6845502392868446 0.29387869331699706 -0.6398817729080484 -0.27403633847043346 0.012745129476625972 0.21582622501975715 0.07226781665922924 -0.19511035711608432 -0.008261746687461923
1131 0.26447367870285504 -0.31655620546542146 0.1963481921501002 -3.600821934248964 -0.04182549250121988 0.07932726109820054 -0.35863461990341633 0.055340235960061074 -0.34105974483234713 0.24189622181727397 0.019456955520262824 -0.024103063911673325 0.4449364102759373 -0.3981146315954723 -0.24241192767923586 0.0670515568724764 -0.32857961449138195 0.17428896924129647 0.2969366181863585 -0.24057377072160505
5879 0.3561941869505953 0.03775090175072472 0.2191146339779533 1.0567311304659415 -0.2865601521949877 -0.030875820544591617 -0.5012125559595917 -0.03287577120767383 2.111132168368526 0.6652073759886226 -0.08242124034995615 0.3564497071549547 -4.2604070921205315 -0.09786024431154827 -0.2522167702003452 0.2555211941233885 -0.48553756380113333 0.19856406890233294 0.636903507071882 -0.004206065387227616
6048 -0.10659608434995815 -0.16759953795574786 -0.2083090423027089 0.6539352346477983 -0.17559347646331502 -0.029960084813952407 -0.6396672887654666 -0.12585921952235207 -0.41605114191615933 0.3920689771457071 0.23204331046148766 0.576557476206716 0.8511736267976024 0.02141516837994931 -0.15149431309609154 0.11808575869451877 -0.1434975777542653 0.31571461473175666 0.4345506730740344 0.05483297091865054
1985 0.1705929359188712 0.03950479738061124 0.19361686241636517 -3.703694365129776 -0.19158427914424817 -0.07281244667159197 -0.1675606311644565 -0.004261563571920467 -0.273830183873557 0.08472273683835825 -0.2517429368443329 0.22456178738054752 0.8642121400399545 -0.25760679595637936 -0.2898056105079511 0.2433662560493554 -0.4632389821340902 0.0659745403496776 0.583460369903101 0.03567385003365899
7698 -0.03419543983434958 0.23217301918034627 -0.020770506907868864 -0.025534603659755902 -0.18215199345495475 0.026372873070364927 -0.3747973802538921 -0.13604028329724496 -0.3131202250497482 0.49694092488490804 0.06790133857274633 0.29150018616410267 0.7844344383509462 -0.19944916827572903 -0.2993901671965402 -0.0315607023119157 -0.3092393541195144 0.20890073064840717 0.38542712379105687 0.056090689709714016
1748 0.23190110160820745 0.11981963451660539 0.40876522800595166 0.6230596312090735 -0.11736527014721998 -0.052681864237370556 -0.12408430528995729 -0.03969046534291933 0.09338818867654491 0.38607939067887553 -0.4737210883221233 0.01846037392722481 0.5665283748956477 -0.4479955438035328 -0.24091055259080274 0.11813601472731074 -0.5884151112617987 0.36024593548470224 0.6072991894115232 0.05389175472615101
5117 0.3645618588249367 -0.040291391728930835 0.26340275054272005 0.9386010557874505 -0.16370332042341995 -0.1326610229861313 -0.32105879033532686 -0.2298873440098834 0.041653644116157754 0.009501747726323423 -0.32477706759999625 -0.0897249257240617 -0.06449043874495468 -0.3237695016448943 0.0051494975428505755 0.28161663314342705 -0.2838061661937349 0.035851635737043926 0.5934729430887898 -0.07177110105770151
7522 0.08895193344441747 -0.09199025428796402 0.3565831206743514 -3.378205558644423 -0.11094111827980309 -0.2016979523907802 -0.2073672265637249 -0.09294615535602496 -0.21334374379397386 0.3143125210896118 -0.23341686180866808 0.16128963218542017 0.8196073404897013 -0.2965798056374748 -0.12786861840122316 -0.1531579661127083 -0.3177016062923855 0.02450439441524973 0.6287207608708121 -0.007421980146071978
5628 -0.13083166598168838 -0.10159646174139009 0.05813280846060648 0.2992636600136859 0.047732972503247845 0.12438444730649531 -0.1277075160205935 0.24153516681202994 0.23374541471901458 -0.10383918885836517 0.15749546621463276 0.14048310460601893 -0.588443425060067 -0.28328573338401275 -0.2523281825227979 -0.0041508863776461066 0.2258164479140041 0.19527236896167888 -0.22809160942673354 -0.00939506706019539
6496 0.022182717777159397 -0.7289199327662603 0.29039058219749575 1.3062025643430106 -0.11381829677516629 -0.08582067527881139 -0.11801719915788049 -0.03339219840750118 -0.18310575293842324 -0.13164384695389217 -0.10572124061885854 0.055234112238326805 0.8118568824604756 -0.5203154091160791 -0.20612343431999783 0.21097716510546877 -0.3494422822345386 0.04703767037008036 0.2863541765488368 -0.10056164350012135
2261 -0.10001179436855079 -0.1756159797219515 -0.36174480604703796 1.15592770783547 0.20840690238070686 -0.009671252045858501 -0.10627292807918433 0.05121383553789572 -0.4407198208350504 -0.02016153337982984 0.5193586785038741 0.24419594261255662 0.8432426722145695 -0.2027759754910856 -0.3218462372657719 -0.07039698522091113 1.6312882805075863 -0.03950030785458721 -2.663084627573939 0.2735393632250203
7072 0.1985212091667671 -0.39380686233589557 0.20738207383784363 -3.8591388304453322 -0.04066610625930471 -0.03384413690601334 -0.3547047481954004 -0.10881421365098491 -0.3185633909366164 0.3422256859174737 -0.022695568283404608 0.06652346380816335 0.73955318303214 -0.3175448871151131 -0.08651249559876611 -0.05886594857388462 -0.3644888996716417 0.1261685559377064 0.6014659616649444 -0.03387683345851968
6773 0.16655041916000687 -0.23713874050432546 0.2804739332786904 -3.646586346866182 -0.16874652386789893 0.0931359685761781 -0.2020833381116562 0.06011954321388286 -0.45865684324295747 0.2379627893027612 0.08425944017664211 0.14319514855429855 0.8090364776245719 -0.525066943679527 -0.2086438157067655 0.16375166710570094 -0.5561502617281644 0.15419904493379435 0.5748906700399469 -0.039405991842243575
5041 0.11685936844086021 -0.02872064047714589 0.23807657751355124 -3.5330942321961567 -0.25501113947480764 0.022209337577138253 -0.14768102707421413 0.004733590201527196 -0.39115341789937635 0.2695985166688888 -0.011999602803034505 0.18327229385220645 0.8547758069069904 -0.5945713412329934 -0.11679970992267495 0.24252402376126814 -0.4311718148144868 0.25356889069916005 0.6649528732327861 0.009377003654023141
5206 0.2797871062109855 -0.14189712720590966 0.14011702921455807 -3.638410518388355 -0.03599718302058309 -0.10074833803163938 -0.3885870191085495 -0.1521852102770697 -0.15871516052626852 0.1334715705817617 -0.2468396713889737 0.02012453052059104 0.8842836516136033 -0.44311562500818213 -0.15971656398245912 0.1695294879627776 -0.34446393251615726 0.053384688741490494 0.6759119008083955 0.23491082255352724
593 -0.0005234339607968945 -0.048484566206450884 0.05024622579529327 -0.3477417209094496 -0.05394677716273531 0.10391187612587913 -0.2556057929446458 0.05091861109592984 -0.35662660619657166 0.5487366019211001 0.21875552064366793 0.07614250555616359 0.8011519701685716 -0.1544337784952829 -0.09144701972452193 0.1306729773062225 -0.2621232119023105 0.22587870572098948 0.45695900222374053 0.2900321415312271
3317 0.2811750626306454 -0.4103902150452715 0.09546197852186893 -3.5325636351817247 -0.22583002958781837 0.011917671233935109 -0.05464233927100338 -0.14544270609657628 -0.2704972926175249 0.17325820460238434 -0.21224865878776544 0.3215543959484283 0.7115874334258249 -0.16013610767651734 -0.21559757248858372 0.08292634891842172 -0.4863959540187286 0.03688809928913741 0.4712565298039649 0.056082987586757
6416 -0.06472412977747133 -0.07514344851237119 0.08073073614573185 -0.5417366868495226 0.15093243174101847 -0.021640774217468874 -0.02578294454173251 0.05544985300178761 0.18417190210507334 -0.17559609962650205 0.026625098327114127 0.13317975271088078 -0.589652782763297 -0.23754177127818243 -0.22871844304307481 -0.045120536148481286 0.3007342888628118 0.059645112051184744 -0.6782333027800903 -0.01820576710312739
3858 -0.1336540912157282 -0.19786009129188636 -0.32686197509670356 0.9007478639611919 -0.03347639215209198 0.21879694022531956 -0.47363417031395494 -0.156702257003219 -0.13623055388237965 -0.030534662551985635 0.27090622523831154 0.45092560980119806 0.6848027626295884 -0.5071635411475974 -0.16753965015557762 0.1782406388756406 0.3038159247279322 0.09224093866954203 -0.569913733878809 0.23341404809732577
4146 0.21039648164996172 0.08560569683260681 0.20696462151061723 -3.6745169381868297 -0.007539742556614067 0.20674602300980194 -0.22878935087800123 0.06308261075007052 -0.3217240098028803 0.20147396480158294 0.06905601017943468 0.03195306557409778 0.5036056848737097 -0.2517756591605502 -0.2349251685276607 0.002661735981900777 -0.405669945353019 0.193304787995328 0.36933443972945507 -0.14083649499856515
3077 0.11788873395366219 -0.2635529201690988 0.13448785199372626 -3.707913841062086 -0.0860619939429161 0.05779987356803578 -0.3949721443251428 0.019824023899556197 -0.4233308946858808 0.28799530940267754 -0.0532958507896466 0.2649792272571687 0.5872407850497591 -0.3636493922109095 -0.17223658955056048 0.07579316161858839 -0.3039532667666026 0.14643725518328657 0.545205595183453 -0.028726993334980962
6326 0.34588534898298595 0.16893209954049773 0.30375138253810496 0.5254761753818119 -0.15356080978961079 0.022047977654540477 -0.31254117165879575 0.1704465386353738 -0.25282177252002547 0.31316086944179944 -0.21600966860661497 -0.19357259835478915 0.21170354791026408 -0.16536585917589836 -0.06516138195639838 0.1915040692649959 0.023969462930003897 0.09945371533565311 0.21807824662506572 -0.653568489737633
4569 -0.05837564533368101 0.08969976039893555 0.12861922770722892 1.098053409079609 -0.3582529318312777 0.1201414601629769 -0.31993662734137146 0.0026013198321242475 -0.34564102398844443 0.2435103557788855 0.24797531628994515 0.40639155940385746 0.894953499965102 -0.014363425525232877 -0.47087144477440224 0.1498743968694512 -0.16534066840931616 0.14980959248122194 -0.09577029461249557 0.32409119099175365
7498 0.4277078578880107 -0.31252227590306964 0.05402950633582157 -3.3141792537664956 -0.139169435028997 0.027104516024160107 -0.1143335277454525 -0.0009814077958898084 -0.49294222871300464 0.3172652177805229 -0.06414072918372335 0.23986795990553228 0.8005052803640882 -0.30558761974247994 0.17308826739342337 0.013550350138485871 -0.5691061196598104 0.10410074921373216 0.575715442501467 -0.13296237833889488
72 0.17006885999244334 0.08955323900114125 0.18874389254423082 -3.4981792999497205 -0.1220204646031382 -0.025431259435611323 -0.20631806744311765 -0.10293367042397848 -0.21375650740168467 0.25000506029545316 -0.11978129253002696 0.3213229897169359 0.8611328587964527 -0.08045772670739794 -0.08349173420255773 0.1862856971735478 -0.3390997646457238 0.1008893513829289 0.6589129478705459 -0.13452392708879848
4629 0.12261971940263108 -0.01505859850998967 0.18468502366214856 -3.781409923534725 -0.08329762454055332 -0.034491962379286284 -0.3983893116332639 0.08565310802817185 -0.1622280630120738 0.1345081638810277 0.01901608512644301 0.26399765746046433 0.8969700486194132 -0.3366942756468211 -0.08475095102248513 0.2192887849553499 -0.4329107959538633 0.23658780830238163 0.6333647174296778 0.067445244898524
5230 -0.0019294832429560592 -0.20479827748862003 0.032198060296926435 -1.7966441716566144 0.012460364739069979 0.008512706993791705 -0.06287824292313114 0.039258957949171794 0.1481302462293784 -0.110929997931793 0.1543278159672068 -0.032805199162763005 -0.16233022681286963 -0.33194113370000816 -0.20138972194282054 0.15571700244523576 0.40083464750752673 0.12570198203875732 -0.12691001331769525 -0.4914300638472153
3657 0.026126622791306606 -0.31889962727035975 0.2532130379816705 -3.6296134453436686 -0.1392488359328038 -0.03358430922148378 -0.2273083968449028 0.053818958529462724 -0.14569914806325607 0.06927900017439279 -0.16376644088224168 0.20749982986848373 0.5455610247332661 -0.16871596587754387 -0.07600997575433761 0.2847906488016922 -0.19058912916272816 0.020497810884932556 0.5098729875228316 0.2330756968388249
6291 0.32581382150955 0.3408851305422262 0.12727127722028975 -1.6386076280667714 -0.026754509341477127 -0.15916759213087248 -0.09736313329899231 -0.08477222395195445 -0.17185493808706723 0.36449669340276075 0.036821564156229045 0.06961488026903283 0.7760091283055085 -0.13565547291080549 -0.21939677720828887 0.2403671872202713 -0.42049005256839456 0.28840592890490035 0.5224675218273291 0.14930854337423832
309 0.28193815504254316 -0.22913908859486742 0.04192795935201065 -3.2962402150931966 -0.18234794009246824 -0.12039773902173931 -0.3043161668066389 -0.2394086290226104 -0.17149737057535774 0.20093283300290052 -0.2357707036012538 0.05161188349000539 0.8777487241075485 -0.4053135503263911 -0.16088211827083404 0.02651277430608522 -0.5204560109341579 0.05725980385707595 0.529755006287737 0.016975826801758288
3898 0.2583756358128467 -0.2614161780903572 0.3399781458377349 0.48665373301146264 -0.03911487495115076 0.010375195076137336 -0.11647638119094292 0.11029383922997507 -0.03207211326648777 0.11420821245100753 -0.19347041014463767 -0.20701622439067133 -0.3258854833320709 -0.4184450374882118 0.05245680499766725 0.05575502547692834 -0.29565785680832624 0.16264326261810563 0.4533615054885183 -0.20424664678388135
4321 0.213079947374459 -0.13661087987292028 0.20684538919453702 -3.758136124375341 -0.20739009209510398 -0.034937804509555775 -0.3753952765173345 -0.02304873642017583 -0.39679763325299094 0.24454467625847176 0.0801121796548726 0.15588015663973478 0.6820571390385751 -0.3561157918168451 0.10174977557286245 0.028996329471461593 -0.4144716389126212 0.10610595807382181 0.5551513835057281 0.04332607948793719
6871 0.3626609722936546 -0.25923353964623563 0.457186392477487 0.5933334757950816 0.0874300450086217 -0.12511209412121685 -0.2826776298093487 -0.011842470725073896 -0.5316196095499762 0.3863814315721526 -0.15368247081976777 -0.13467725015688628 0.33823302862206484 -0.3566857606931478 -0.13380372453767814 -0.06752236700970048 -0.3007134156902863 0.157394638438413 0.6497294658608522 -0.27323181677429603
1522 -0.10113647129994974 -0.09906402678847728 -0.3295924314712527 1.0319454370824321 -0.08168104314967224 0.0335280757469348 -0.4239875297120399 -0.14100183037360456 -0.4913136857396802 0.26856898771671006 0.31049797698375975 0.573582713374486 1.2300555204166168 -0.035976695068592066 -0.48196677363579693 0.05863137653158547 -0.36904023808959124 0.2114405131792365 0.1507060943694552 0.5276853780180215
4589 0.2714705113489377 -0.18507624955502852 0.18801128992364863 -3.6462794103918656 -0.12599247172754535 0.06427508447420913 -0.28757901308226225 -0.015890786955898465 -0.38320076103168466 0.17938619265493566 0.04222985581035084 0.14212936536861745 0.8321677936014255 -0.36761546800835393 -0.0025382368206497597 0.16385063307239922 -0.5923920832569559 0.17351124790872913 0.6060903269503546 0.20693854167498996
1938 0.45206408809283277 0.06455936956598259 0.3862361192363908 0.8202563035486845 -0.16867975418393436 -0.017151792730611744 -0.35936831823648047 0.02297032565402632 -0.010700079211889656 0.34137297066837735 -0.3053432866654518 -0.031652730508162946 -0.046702083612267735 -0.2355845275824981 -0.21200361359711228 0.1908028296373502 -0.16440871680623043 0.11756518684217213 0.5781985266599647 -0.25315109390425733
7935 -0.018299855409990254 -0.38292471652552873 0.08039814343424563 -3.777098127452621 0.10685998371630359 0.07047519597646747 -0.20219897528602956 0.12487109122217273 0.005033027833373602 -0.023979358337272844 0.08931018913228943 0.11484765667358747 -0.3618787820212039 -0.3166092813260513 -0.013025685776613234 -0.13436528953872443 0.2299627027971078 -0.11354477649063784 -0.17759830685209893 -0.011023873996161136
523 0.10429206781135002 -0.04415351339671701 0.09390776672290321 -3.3953023281126713 -0.20945988739759844 -0.0006442585243530706 -0.18953358359719974 -0.08740149177957632 -0.1553964911405379 0.09192422658018008 -0.17085350731986088 0.26780792197650144 0.8933595834306561 -0.3589884711141863 -0.15369407651783876 0.24524106483861718 -0.3991721986993746 0.1043123450782038 0.6795242266712562 0.1445097133044402
3517 0.2189035061840701 -0.5494949029422326 0.1791095732300369 -3.6920464782974225 -0.11231091005591125 0.020120299889987262 -0.24546390513822103 0.06024576186410401 -0.23427270517079476 0.06855897783086957 -0.01975078978516018 0.11046863711959885 0.804737966627322 -0.1737967110033499 -0.1679168351129168 0.2847665169967767 -0.3207542450416151 0.0938806969284783 0.6779110921136077 0.10433021151192147
7836 0.19582260352209818 -0.15473323175729198 0.1279328104482166 -3.6014558977932984 -0.19906487359351663 -0.034216378021071595 -0.2789369175782747 -0.0004412509518392349 -0.2666848318909492 0.03917225154614902 -0.008993383503801518 0.3134536663704525 0.5928913189536185 -0.19030017302481014 -0.24198311613502907 0.22169803371361846 -0.31924796961675084 0.025798240844684187 0.5434567993778506 0.09044903952070048
8312 -0.2749969267475344 -0.5204914538782934 -0.3944840747301543 0.8053815245948898 -0.12776795622913206 0.07121828374703988 -0.2256367744858888 -0.03029592294395044 0.094871812754967 -0.38495674671839625 0.2918961407768372 0.4590892226391778 0.06550082173994647 -0.27317605632009007 -0.22991406788319363 -0.15245032602980216 0.38451635222614344 -0.0898169083690621 -0.27155116817753217 0.22211461473403027
4979 -0.32760014500370116 -0.4334833868104644 -0.23914307117775133 0.610234854320065 0.07245805501966833 0.10196350304013355 -0.3315144640752458 0.019111485365980455 0.4772682012406511 -0.20722419110969498 0.20650885180440576 0.3787292034751749 -1.193393742015357 -0.4768240029420333 -0.1029789586902499 -0.056137968032296086 -0.08069057871012357 -0.046452198650402794 0.16028571959307913 -0.33745462029420753
8171 0.3347484909211103 -0.15972682570391064 0.019349883616095867 1.0252137980159615 -0.3147078149031613 0.030582945698738966 0.1201073530674375 -0.09545263031628251 -0.30334679973287715 0.3034081152493241 -0.03701461503894257 -0.00436705572203453 0.843823063865243 -0.05941957602327185 -0.1636035890678001 0.1263051196157056 2.7277473975334625 -0.09559242178406326 -3.231870157935959 0.131152908767539
2904 0.1790857096110537 -0.23079411005037964 0.24438966919938632 -3.7739841133141248 -0.0827431755418396 0.03140286128474905 -0.28465929991155253 -0.0009391631593425626 -0.4078352871459862 0.31521866601128024 -0.0683772915434399 0.24201766981037975 0.7564852980690467 -0.30243958501613805 -0.16551173545978037 -0.008978961457103788 -0.4141637855796689 0.15029675567851056 0.6671800822593444 0.3786579791334394
4528 0.07687546912267726 -0.1679467258299822 0.30046349658297333 -3.4090392724079894 -0.05433080584283232 0.030991160050954106 -0.12943912203099572 0.022330353778663894 -0.3126996352958546 0.29489083148419054 0.09223327428032327 0.27851728521108876 0.7088459593088563 -0.004335796190642076 -0.3582864910184586 0.1287741505746764 -0.26099397920368217 0.14728200712114886 0.6329791291741437 -0.11276398576787115
2162 0.10070660583653336 -0.13417413440803178 0.1098772404149734 -3.494191721619588 -0.05692258539689269 0.08285382606694101 -0.27230757009736767 0.06016653084365302 -0.04779335250650401 0.07568028722920196 0.02754640083347941 0.49595748954079494 0.34495433189156216 0.13067254164306022 -0.03338564770304727 0.047421978131135294 -0.19817998070483286 -0.040750749370019414 0.2548119260645914 -0.1250259374055518
2718 0.12864285862619 -0.31389996765070743 0.4021555908493532 0.5434134724926887 -0.008748988142897568 0.017933805528031352 -0.2855892857990615 0.08424561086268836 0.3653610467151237 -0.07888092487575926 -0.18978766064863312 -0.1185384031968734 -1.046820847861818 -0.35167306232389584 0.014352329330228704 0.22292981435678294 -0.3194579482982518 -0.12735812323351248 0.31681185455902294 -0.3482884013409038
3183 -0.2379578052037084 -0.3953137348796386 -0.06118435468810172 0.5406479056289097 0.13630614910814917 0.17856338709307887 -0.18561272191737493 0.17905730345330956 -0.24992376763949364 -0.5007979365732849 0.02693665238424608 0.34918719309748864 -0.5104457989997447 -0.3970172702131041 -0.4167707939713236 -0.11451631612249989 0.15114814290338788 -0.11624881384487774 -0.4686754526840046 0.174894547113016
3282 -0.011403661266373719 -0.4287717948916093 -0.037211294383534516 1.0038251797464361 -0.10173550557455864 0.09492499164514928 -0.2531833706521715 -0.07953078838836561 -0.3365562960118821 0.1027898305111428 0.23028677746774107 0.22039887616160836 0.3991141189292222 -0.3079772248360936 -0.24019951523708774 0.12620144440999503 0.32715464941375616 0.06065968566520082 -0.7422563965281136 0.36265684272101734
5785 0.24684448256161998 -0.3439121640217084 0.3095635417378682 1.0688794613708419 -0.02747249743940372 -0.16935130028195108 0.07488399342358497 0.06657988657362823 1.0989372852205084 0.1905822841370639 -0.35395286771144163 -0.14618962293936627 -2.411045915243748 -0.24297775424111834 -0.0727112455614049 0.002251954759635406 -0.40548191950762036 -0.02453743766062433 0.6226800203990812 -0.6085294987559701
3061 0.03096999659051892 -0.13908385402714957 0.2868843579407829 -3.34308076852845 0.02630419206199649 -0.14064234447090734 0.16267474813888924 0.019778315525583543 -0.20575823183792202 0.23227061793587245 -0.3090522352274956 0.175141300930589 0.6203476039224727 -0.11915066068875406 -0.43767452126353384 -0.03632643665914671 -0.4343386652272632 0.015588559123336204 0.4302530596487647 0.47335950324037535
8337 0.0849686921721388 -0.04818969601657911 0.12615821933489402 -3.6697466365522287 -0.08982691449715481 -0.1713321537444882 -0.07090886525148009 -0.053660511177294916 -0.10560254159088867 0.016915807821565373 -0.07277158274388401 0.2636544814435358 0.6105221918866198 -0.44080510653468497 -0.10226112691924642 0.19673562962916924 -0.2120183738628303 0.16183071023176182 0.47959743677335276 0.01942137882290916
6254 0.08155058098429016 0.17069743067047813 -0.08160298081509391 -3.0461459378667666 -0.02793322594734234 -0.09509082048173322 -0.2615659661433761 -0.07530305529833912 0.044813389502622834 -0.012978939703971036 -0.05167697379635116 0.2330499337336236 0.1516108404078279 -0.20934740053889092 -0.052049176744159896 0.0738674136774919 0.027385955971563 0.05191488932012909 0.08772902071289918 -0.29060650411030386
6276 -0.15188549215692218 -0.15731321609923676 0.09430990406888583 0.31811042808153717 -0.049014095099988025 -0.04452200867194731 -0.1475784176333102 -0.14073660021230724 -0.45802771847812374 0.20831637238064382 0.16832341073876528 0.15552092875835208 0.6807566517422103 -0.3043533066714624 -0.6953134405770193 0.14382162510288582 -0.2596328609271176 0.18194027754397235 0.14280499804835045 0.39472437062829335
8039 0.029331710113324343 -0.09015880995040272 -0.04889191089051066 1.1411890112683833 -0.13256204050062945 0.06922228553647543 -0.25373782311150495 0.0646952691523898 -0.27068228174528997 0.17069321415595884 -0.04740343491144932 0.284451654826432 0.8488263281306988 -0.26074826991606037 -0.09514373615952493 0.17970197456181186 1.8590093137848334 0.19492079551332459 -2.0973546652054336 0.23644862220520355
7753 0.14577106645271184 0.007643869706047382 0.16507408474255997 -3.3824058994649913 -0.2319674045767279 0.011706131304260927 -0.2043316544648717 -0.07269092079525316 -0.22606094290711293 0.1309445804150411 -0.23922832346786962 0.4525691037265631 0.7909430624993306 -0.36345469707712086 -0.08052349119777949 0.35181042212587094 -0.39718318102572003 0.09239817366221353 0.5894118636206938 0.16405012817157344
4158 -0.3376198166757107 -0.2636806196568216 -0.6658630484758147 1.1887781417237524 0.07148600838976522 0.028808218297617986 -0.3866218171950072 -0.11482860145465869 -0.37379537557831805 -0.0003082624589739632 0.8367367444890058 0.6844588105265725 0.8292941083408265 -0.04151893462114177 -0.07269540657365331 -0.13128810935274937 1.5318434556992813 -0.08184455029168211 -1.881262689907792 0.2587661708941537
134 0.10182905901518334 -0.2408148876552273 0.19822900241093572 -3.419642625222861 -0.043765328515582014 -0.14194805764629018 -0.25607662676537646 -0.13527521634802148 -0.04180603360819761 0.09712098956402421 -0.20621934590668378 0.43410977390300837 0.6816048378805557 -0.13824498354896209 -0.0854033224550715 0.1305178935050388 -0.1958897534442481 0.05164596651356686 0.5786524080600174 0.1593856910919578
1078 0.15374565459687925 -0.15691016256694174 -0.1083347911584182 -3.0580305382561117 -0.0953349466622117 0.032253974509785024 -0.052232515097772304 0.010909514509868452 -0.022059755960881652 0.004273724326630636 0.05272371416889225 0.2472317079103175 0.20653751776332752 -0.09382048953294489 -0.12381341846491963 0.062454861941762176 -0.04501207589412165 0.033542765291715876 0.1597332306347325 -0.21977785369842584
7433 0.2896415347033077 -0.12315132370604323 0.13627325409899152 1.2228841197334694 -0.15224458516988953 0.008503687565150046 -0.1858824918404036 -0.14219683034608563 -0.2564348555849314 0.14584938383620463 -0.1428859596405285 0.10485908371835265 1.0732995873616937 -0.00477089107296518 -0.10670842545292732 0.13252670771083347 2.7143141333178384 0.07914226394228077 -4.115866946175475 0.4267851670688638
1 -0.28189412598444713 -0.4169560689635225 -0.04804852260725087 1.3078224387649573 -0.05436081970855831 -0.04643212075419823 -0.3796364869031106 -0.136015516452349 -0.32371883554132586 -0.1445584564977145 0.4363909239873561 0.5714794993589357 0.07221846354731078 -0.5873526794995643 -0.6334506226629877 0.07426140884484406 -0.10793259722308024 0.03144746098515784 -0.019422427298734134 0.2510685024792154
6845 -0.08126381572634694 -0.0483765766634022 0.2806929212830303 0.609773169990028 -0.01564327889428824 -0.025448730592785955 -0.09879898706357514 -0.006966303933863883 0.6404801813104426 0.1301578688875452 -0.054483808196735185 -0.15779441387497622 -1.5129973409278252 -0.03153418428811182 -0.12334826683870043 -0.14011963352028065 -0.1161407672280442 -0.05887259686708155 -0.024897082691019312 -0.7761523948524427
1548 0.20558347956952497 -0.01671941521730379 0.2558159595030192 0.47148746967293487 -0.04662110990464261 0.11335333039282808 -0.42314134532389125 0.08696599838004758 0.3757068388300417 0.12178792062148606 -0.10301349430737976 -0.1880965356663639 -1.374430353120158 -0.27919330883272364 -0.03897330096043381 0.12919313493212062 -0.05141380289059944 0.13728864797823878 0.004111239070448418 -0.25572407369721556
8242 0.16749729523063484 -0.10195673072837004 0.09242835570475132 -3.78231687695444 -0.16426160128428494 -0.1839729105067901 -0.22528432669082507 -0.059273233495400035 -0.16929265041359157 0.04981560805473436 -0.033003098843496 0.32107053660807183 0.62883725951188 -0.07360422035459056 -0.1396800980210161 0.040279019230157705 -0.38294118035642444 0.07393552236841118 0.4809440619790988 0.16075172444183905
3943 0.2085664821365942 0.04584423868894442 0.3995084135071682 0.6575035524466246 -0.09843169601306485 -0.028305954939298363 -0.26890246034061754 0.17234371045009286 -0.3936320031478626 0.5435813135171609 -0.23787594374872434 -0.09861319190341997 0.43231481147336387 -0.5218532940346955 -0.2813100138603945 0.2304081357724212 -0.45811572275252366 0.17533970433267065 0.6903164621149377 0.1086047050367128
5064 0.45808425750046833 -0.4340415745994266 0.3689214884331348 1.0989081168177386 -0.07046931335131171 -0.1318142982571747 -0.229976478814162 -0.05786571370722923 -0.37090384716396935 0.2953416955424028 -0.09010753849414894 -0.0774508814740924 0.9535476218630868 -0.17372435984211396 -0.08764089780901752 0.22617869674371358 2.696521893381609 0.010498475353363755 -4.1040276405880745 0.18817419920549225
5060 0.2210015472840744 -0.3628731886349907 0.5645972512196868 0.6101996137280257 -0.2658268739268852 -0.09785870405541801 -0.430201321151382 0.06168126448065003 -0.11480928396670183 0.15251873602384328 -0.355380836556923 0.04462332807547015 0.3507016674081073 -0.2786370278358767 -0.2683519072722071 0.2321230820328222 -0.4504719957536141 0.09259078309458219 0.8905941433849828 0.028443628710305615
1960 0.047062829952988494 -0.2221685953922983 0.19904638586876494 1.0288459026741557 -0.13925182542931155 -0.13033225028203282 -0.3787799335002949 -0.0437373695870745 0.49813593570214254 -0.04473722099472105 -0.07856898874016069 0.08301754653700016 -0.9707547727333095 -0.18905080718043782 -0.15862569735330687 0.107845551700644 -0.28205721794897504 0.0627523581130233 0.5858049274382782 -0.16728574115706887
6130 0.1919875238122016 -0.1733482589846995 0.002038949168776288 0.5716667156613622 -0.1410468966231123 -0.05931811876783492 -0.17590422777051512 -0.12368873961371664 -0.08783244016414277 0.3319498310872289 0.16819389836285273 0.2923160732544054 0.8723621524805799 -0.14839139919252187 -0.245678125585604 0.1919323656482911 -0.20864326003690814 0.19320888394120994 0.3401370580845735 0.26423395547358147
7548 0.035921873366208154 0.1704692949268052 0.01392774214555958 -0.0032534639752836124 -0.22488669614482534 0.012755753258203216 -0.3583120670651651 -0.1929931578048727 -0.23553357977844103 0.3995342647263762 -0.04354909458018371 0.3019004673445609 0.8875793775547817 -0.13301883301839926 -0.3105985450548797 0.18795243926412422 -0.1526666003009572 0.258529164911468 0.5981504029727646 0.3465027247004432
429 -0.1826016518427545 -0.3088223761429417 0.1703618057104385 1.111839545581899 -0.03953566092083735 -0.08424738826702606 -0.13569499249851963 -0.1863574305779404 -0.021096131760232183 -0.3323665864895798 0.16588124387719863 0.36085920773256297 -0.47663281089410564 -0.6825756115232899 -0.6371597952283232 0.11464397213096553 -0.35518491741837954 0.1551478655787636 0.17174080478505885 -0.08389963268663973
7867 0.4271909970979556 -0.1341258807268624 0.19607699393351236 0.8489490873875882 -0.1432499742161909 -0.07029979760259901 -0.07182013348399993 0.012021759257735543 0.0821301642623335 0.28922027978314674 -0.25012514249623835 -0.22621594147473964 -0.4023145867759901 -0.32460192461836085 -0.2161794389237417 0.2097309538374686 -0.2967823729786683 0.08538500384837555 0.6825986938409012 0.015034665723217414
2892 0.08151532404535079 0.22639212972294379 0.11248070258544879 0.5666027952255737 -0.1579842223045758 -0.031296228830103454 -0.434207626617747 -0.021424787975364745 -0.26578928256939643 0.3260550679838829 0.11208391213076047 0.513865206850001 1.0016443516623952 -0.08402009574145813 -0.19668782858720996 0.2481782751056128 -0.30609836120883777 0.13700207416264093 0.259603806247785 0.20022019796800652
1174 -0.12108688204829784 -0.34588565835354934 -0.056414924508297375 -3.3595989562283566 0.164453806270102 -0.07681864727237044 -0.10690376169732298 0.031278130310431806 0.3039366678652906 -0.18110668641527045 0.08709818874938331 0.22708355051072351 -0.5190248226242253 -0.2125726753250263 -0.03225490835759998 -0.08778376782872793 0.4372989879607058 -0.08698516208140429 -0.40363384298852384 -0.30616558313679143
3409 -0.018506814867791026 -0.06374202022617902 0.401064297900488 -3.4201791152622536 -0.035096452340752114 -0.20720119459311703 -0.2106920356102046 0.012596038365813246 -0.36448972166277915 0.23485274902751127 -0.1841896227851102 0.09913665622248388 0.5976773613835185 -0.45135840538872435 -0.04819510696315601 -0.027323125197315515 -0.4266078100672655 0.11228881320978262 0.4160284226007017 0.07541247347481313
4997 0.030156857424376 0.23679504854184774 0.28018074583985014 0.4554301185863276 0.15723139418411108 0.08422490833554587 -0.4183190915278475 0.1381367034125324 0.5318103269674006 0.09471276630341836 0.0739092219456813 0.03430045049625274 -1.2431536068132936 -0.264050429015433 -0.1966904889693002 0.08791184288831683 0.085864369399381 0.003927007044344096 0.007874054563680932 -0.2930006907638458
6636 -0.07894879989452497 0.09728306324109683 -0.046278293175685985 1.169841479561766 -0.19231890940604143 0.14820270363227253 -0.2872162279259593 0.024543243010532272 -0.09743831782000728 0.33749846917716325 -0.03383744036105716 0.3311604337342121 0.6387396622755187 -0.238741061254227 -0.16721826529239 0.16440182671168513 0.1585894603627421 0.06067439173687559 -0.27829299919232897 0.2904133415167914
4587 0.21284749369495332 0.08471695115960488 0.04719519683708537 0.8662676001220687 -0.37680909898578324 -0.0343445900148647 -0.33228542973331665 -0.14362755468521787 1.2154158916438904 0.29565124234461865 -0.11678606656427473 0.2131971249587404 -3.847336311262697 -0.07526571029174899 -0.24381093287035144 0.31887016780622734 -0.4185651643960152 0.26941648371200966 0.5927595416627388 -0.32830574811857466
3830 0.3061390113519706 0.02515927272854252 0.3324552094074816 0.25412961500946185 -0.14011117583589391 -0.0017250647493896676 -0.29714071028232997 0.03953736020509853 -0.13508734553601787 0.47317431903042856 -0.30518355263523805 0.07084070066824354 0.5785617459386029 -0.03831990964780278 -0.2807861830055611 0.05618867056133232 -0.3192859107899091 0.012903003382641075 0.5026430653527946 0.33255984094099117
4739 0.17632509168364885 -0.11188685712494043 0.1616113672783038 -1.9413185008810334 -0.100821918677368 0.023793726374466348 -0.3302526016650867 0.04732261435933447 -0.21740802970971806 0.22657841074840493 -0.2068229829599063 -0.0029785800745084023 0.5672430169359773 -0.2719148087514083 0.0821891489147329 0.06947435667167717 -0.3158358166848781 0.07692928160218673 0.4589161926451492 0.20799531675601377
398 0.18735760954336722 0.03832854297815681 0.2191391448743737 0.9175658387991832 -0.2274599741010641 -0.05885982327793452 -0.3698419341235989 0.03385347156140254 1.2847117590665937 0.25870947798100363 -0.2013674520148203 -0.0783825446521325 -3.073645555975299 -0.19176445969871403 -0.29559929863080425 0.21119574399516797 -0.34455014770202924 0.15521663092687232 0.5688301805298414 -0.5633059479320206
3956 0.17221021102517436 0.12998169317038963 0.14359153686563828 -3.369203328611036 -0.16311680804363066 -0.014491047431109292 -0.07311382204028903 -0.016514855378221248 -0.3407014267699309 0.06918426504448852 -0.14568169597329966 0.28065989917792716 0.7042777282038752 -0.1581455606086621 -0.11747290731456951 0.28415205656738285 -0.3584819222824034 0.13106854359013387 0.596501461983937 0.24813645281138555
742 0.247525411178903 0.08482669722615861 0.18522261136625376 -3.0688328506199634 -0.1561821840491699 0.07142241881005679 -0.1660197607255343 -0.08654230576908477 -0.2820582522663736 0.1438930113635888 -0.046966188529198684 0.37001626322730247 0.8495051045551077 -0.05330476569995016 -0.0855192234236525 0.29015308040257753 -0.44274597210029976 0.08769050986125679 0.6657893523523872 0.21154964404382598
7885 0.10791324028574377 -0.3839157674880448 0.2152206594505531 -3.4836103633416324 -0.08436858815882464 0.007083616399425667 -0.2294421126708813 -0.11888551480448947 -0.18721677717002647 0.10886402255948813 -0.064596085706681 0.1767463721341811 0.5503822862514294 -0.2617677779558729 -0.11577377488911807 0.22615165440731258 -0.20392364874558397 0.1393597485139152 0.5230770756744684 0.18347241123092664
1197 0.4155816964050121 -0.13124070759614984 0.14654761603749952 1.083485724330051 -0.19407854624232254 -0.12459850110719344 -0.2846579641344358 0.011873374939994063 -0.29155454989703133 0.3494707075615454 -0.204579563368633 -0.05921324729406922 0.9288237901171493 -0.06968340026648315 0.049770456196258465 0.1424201577937437 3.012766837738955 0.30350196091235576 -3.725701126177178 0.3430852487867177
8358 -0.15610565590847852 0.3473655832508453 0.17460486641774092 0.1913652487008913 -0.0960564282967801 -0.11216610511336865 -0.11541337597887562 -0.10323335871995641 -0.17379174128404593 0.5434709187451325 0.09886820095054326 0.30388526121072645 0.7772903593016312 0.076450247551762 -0.18982465668743814 -0.023429658471235022 0.38433026086453814 0.08835352046282811 0.18761758442421123 0.47078182981554506
7049 0.1851905515481718 0.4749551214022047 0.16231605434533158 -1.273227869998888 -0.03342698746174932 -0.04173809473097202 -0.3965290753374479 -0.10272860305678182 -0.09804919291010723 0.10338882585994542 -0.25463879983235116 -0.21420808233136923 0.580268452436449 -0.12568153662020334 -0.191078604491719 0.12047844785573047 -0.22040762618503681 0.22953195382889754 0.40557498982699186 -0.067693793070684
2797 0.09975295945714602 -0.11058825101711345 0.17032270158917587 -3.3255886493498306 -0.19340966258529216 0.017681366372103 -0.2195793295759881 -0.06299811246714658 -0.1320118005315297 0.058565976276612614 -0.04262139778200385 0.4769686430437262 0.553824217275664 -0.20875982658148146 -0.2391787691887533 0.14186519249825408 -0.2895231835621846 0.14355957751582352 0.44680653536344206 0.09401973615000023
5274 -0.07658450182050591 -0.0409731481087309 -0.003048983130452925 -0.016305416657394035 -0.038832153933221765 -0.01449467877978649 -0.021321195673366624 -0.12088667228175054 -0.37139560818106304 0.281744187867486 0.19399921196998693 0.11910051275308835 0.6724901029927971 0.007688851967452956 -0.24978505730727965 -0.12761651129757023 -0.3681638044613348 0.05806093264482263 0.3948154340182569 0.7081981453992008
4564 0.28952807097615146 -0.04074382440897633 0.21812088047349698 0.7192242830421242 -0.1625703856439474 -0.14668305118432848 -0.134767405671964 -0.2223655186492856 -0.07964835227929058 0.13851254240524036 0.06486413390262456 -0.25806450090060484 0.7250530854876484 -0.0555766792352331 -0.17566504445504122 0.15184549659868676 2.5990013459318737 0.11138657618541441 -3.761850861088891 0.3140723582331534
703 0.03167103658065039 -0.3368870010655761 -0.11203597053647885 1.1286890475987967 -0.2803336735672451 0.07089925140627915 -0.45874335871211663 -0.13380427511990908 -0.8766101942852466 0.36757455158252217 0.10720033448689709 0.45702988173094805 1.8074848888787776 -0.3530221733879844 -0.3240122569607807 0.20362888436764057 0.867946482988049 0.2021727707908881 -0.705129646589382 0.4043755487435156
6480 0.005322584299586781 0.5329219829822307 0.12393557144902562 -0.17423758618505716 -0.27527634180143845 -0.0992531956920511 -0.1446613978571558 -0.1897543538979941 -0.17282868936650675 0.3682098314616758 -0.02603779575730797 0.30481257227788705 0.5206145816716586 0.024663676712014432 -0.18911651121139295 0.18482469158046563 0.13021839985106531 0.17341966366372383 0.50055657964197 0.4388571412654196
7751 0.19920598164970899 -0.01798262804661819 0.21021338465534034 0.5509511571371775 0.012590644236432115 0.0552990655719562 -0.050197691770879405 0.12227532215826696 0.8254871720722302 -0.050796687756387744 -0.13483054304061165 0.04806750264910387 -2.315285469269369 -0.02365738514673922 -0.034553190586572476 0.011881791207187423 -0.17336342041971697 -0.11583811529928813 0.22172413423393061 -0.5115146585832299
5679 0.06131459526505613 -0.05976594307576844 0.18286222221819978 -3.126257654118541 -0.11242480353748156 -0.10289514510060173 -0.2626893327487286 -0.0913553527026181 -0.2229263891964658 0.12823365344282733 -0.2585397125061902 0.1557402770975379 0.6497126526731138 -0.24192438797891364 -0.28960754135891714 0.20000401232524836 -0.2635192489473914 -0.02823009135849697 0.5601162536349363 0.2641433426282842
6058 0.1002372591401498 0.18010456592520183 0.12928240020794052 -3.1696031857002236 -0.12470890154380372 0.02300348262172801 -0.3482510083010886 -0.01626834682994404 -0.28626486001830376 0.21671951834842912 -0.14159866030974483 0.18293828825143346 0.620484607621798 -0.3489968866530987 -0.22533396106832396 0.16962793419867042 -0.3977765141085098 0.08865650913326296 0.4594412282763488 0.09572363484979482
216 0.30625745019062983 -0.13047932165684317 0.21165010959940256 0.7600127201049061 -0.22444595506404902 -0.10643823590278122 -0.30299344092522434 -0.08241171167310732 2.023860840765477 0.2752443529392214 -0.16777255671794997 0.378673922075855 -3.628966811631592 -0.1194872397112501 -0.15296239223468588 0.19338248451716858 -0.3078177612639182 0.09252404294450921 0.4939490945830347 0.006488673394203992
7546 0.09645144491275164 -0.06730094649594193 0.30835434986414084 -3.017131649486816 -0.20921568127039075 0.04110137722074264 -0.15949176526229028 0.0318872266715575 -0.2442856572043883 0.2193408692251621 -0.08598561203896626 0.3058325707406583 0.7714610179717611 -0.05335000642212465 -0.20989099331316388 0.19008785128768407 -0.4553743447645142 0.14527793904923758 0.512281663116602 0.15225637617126575
1633 -0.19680699870108942 -0.25445925533890723 -0.43564702680802575 1.0082520286673147 0.06513198572172772 0.23144823611447718 -0.5203451804855288 0.1018173833479235 -0.5004239505394019 -0.02466897282087112 0.4852102326978713 0.41483922444693644 0.5519917526087171 -0.6100375137820976 -0.44892838987421435 -0.02003529915516276 1.3544174056678016 -0.10349989717291523 -1.9028989467824973 0.29206616768260274
6785 0.15627029567281395 -0.16098117813670398 0.46927552329603484 -0.17935821151525014 0.10193345052720496 -0.22105572670335003 0.10904335236756452 0.18620169931886166 -0.13718330449242644 0.11918214564747384 -0.308503102322028 -0.31360332867140056 -0.00529694524021569 -0.3111528405175575 -0.3459516694581723 0.07475902501384658 -0.12659805122756146 0.17351830962748116 0.6684980187918593 -0.026781088074963207
1980 0.011431344010261635 -0.05058219747027203 0.23898799977482685 -2.980752555778658 -0.19845673628043406 -0.06349398609642833 -0.2937919410809801 -0.0007171814199681762 -0.2622479190412958 0.10190331157845395 -0.12175273000990723 0.3281012245702671 0.8532896885407025 -0.21897451735063045 -0.24744739078923048 0.29209251188633256 -0.4410205049271597 0.15033398480819848 0.6486167118974382 0.28761077440566435
5056 0.11803322872438084 -0.2864537202033312 0.26990713037496633 0.8477314996579237 -0.09873460389439617 -0.03917054269355315 -0.23228946397951564 -0.033913544247994004 0.26649281576910083 0.16121615231845185 -0.08182794508300217 0.07505521786093064 -0.3247749661182396 -0.15724864166186994 -0.25655283411179786 0.17353292873189644 -0.2103632383552176 0.14844421082788056 0.4815999975808865 -0.02591116701297474
2196 -0.09800892390613676 -0.2119551339261178 -0.20722900286573978 0.624761623461772 0.034584082095685975 -0.07321530667141027 -0.29577355122997606 0.041955057435833124 -0.015019238759101489 -0.32450509052022736 0.30989887246153874 0.41709050810208487 -0.3857758871442458 -0.34900427523692795 -0.23884796786976256 -0.017242774215322252 0.2654386561372031 0.06989794409209313 -0.4154502727483685 0.17959787037619024
3560 -0.02032722750809783 0.252811380431498 -0.05085778544750573 -0.007703938494175652 -0.14032495710128218 0.03235424732592773 -0.3709920522986312 -0.08664770084013773 -0.3576483760927389 0.3155033997386759 0.10614899640549573 0.30733762245450263 0.6341290586868319 -0.2024593440078097 -0.1576560344127679 0.15347876177789654 -0.3570837815228647 0.10118587124175972 0.26559601198286564 0.31823204072179834
7027 0.04380463954084779 -0.181649057443588 0.1752511841504243 -3.318410867534702 -0.11833940333583473 -0.08158032460488694 -0.3755251876696396 -0.027740881426336687 -0.18071854104188323 0.0967309805847278 -0.2507706148543439 0.2874112780767186 0.6561671416284336 -0.051790154846601995 -0.21665526555857417 0.23445042629724022 -0.46926327713845606 0.050889221863200516 0.37838500950889953 0.09706446356445315
4570 0.33759827363379147 0.15960341060397187 0.06289722333242714 0.9085656862601649 -0.08695706576940578 -0.04692505955114735 -0.1612862358792052 -0.05135376045441537 0.6791655302106918 0.36533378001257344 -0.11834874371479707 0.06005942219654333 -1.7092197741387787 0.08125530406371838 -0.18458015839508093 0.13065290537532964 -0.2462345976157865 -0.013403944657093774 0.30237772621638154 -0.3460503784983415
4801 0.3180298588053683 -0.25188037489740717 0.15941795847439505 0.815454217782035 -0.2355856623289241 -0.111373848995744 -0.3197022523149942 -0.14656426275354664 -0.10131261080809853 0.30555869526210705 -0.1868205870322968 0.15155581811733224 -0.025570009805365335 -0.239222380495108 -0.268536999250316 0.2437687033137846 -0.4794771936777997 0.16546018410803828 0.7778839520892542 0.31332920110469914
6485 0.34703204323614545 -0.2732350151788322 0.12544782963242804 0.9133426371142124 -0.10034879752645108 0.032353529156404784 -0.059715528209183 0.04759516817018835 -0.29290381278856553 0.40767823230565564 -0.20680154454549013 -0.06313210077412658 0.8509548707612455 -0.04852537117204458 -0.19305838628175673 0.11178940412946031 2.8921129772566907 0.05864307199775322 -3.730849888529197 0.09852261754604413
301 0.028805492747509 -0.44046793945796714 0.18704044816964868 1.1202564517096345 0.012859677373041138 0.0135190818192331 -0.20607792876862085 -0.056860899319553036 0.25032009106814485 -0.15185790490049478 -0.0354601477715732 0.0861101062959196 -1.107288086071648 -0.49988111151511133 -0.38024826736619677 0.00532750586598286 -0.3527610285902313 -2.9589473382786e-05 0.5212847936759505 -0.45397236074741804
3082 -0.035322784914944776 0.204537891784402 0.24596159928668793 -3.2853995752367866 -0.12382711601375605 -0.020348956873883307 -0.3430066795965877 0.014948563309352748 -0.35894035910665945 0.10190383123014495 -0.21910771898335094 -0.0009331356446697948 0.6742670643507215 -0.4267519685425347 -0.32824646474400226 0.11458337621474673 -0.22523887527437608 0.140005047846591 0.5680686436888909 -0.10852900397438993
2832 0.07650491273602697 -0.11223928020041883 0.14957549028261247 -3.323242507811038 -0.12373089125050625 -0.06673254792656923 -0.3634246213189393 -0.004718622077431435 -0.18051634474695183 0.007320973791490743 0.011722212210568532 0.32983952617232276 0.5624632337724157 -0.060901729518055774 -0.1672278302517868 0.254137668817236 -0.19410810458812672 0.15784583515706097 0.4486702178524613 -0.1698531282158404
5641 0.2715065269962464 -0.06150089268927522 0.17836153906084837 -3.8077834029443554 -0.2028603681346874 -0.06313155770993924 -0.03259500920696952 -0.023688068921490557 -0.24382222672857376 0.11481224977400453 0.019766081794973397 0.25782467104160023 0.732889562495354 -0.2858121562150525 -0.22292798264516864 0.189440381653361 -0.3540486699876951 0.12459648447665003 0.592767142130995 0.14279213663112952
7236 0.07261207139393942 0.02614047866331515 0.3231491636019639 -3.258560693811754 -0.12176196048551852 -0.2284626988249207 -0.21265770562145592 -0.08851639744011988 -0.17091109294494713 0.20205982995205396 -0.19651279513859468 0.18683962834831558 0.7454370230149355 -0.04383111091741589 -0.1067596308935657 0.06690604773952623 -0.3315810985237069 0.10334691988727003 0.564323491725105 0.14576376424741794
2279 0.13814998192029868 -0.146834285206823 0.4897626397156314 0.27363916104104097 -0.060457223418325594 -0.12585362526881258 -0.1198307551234705 0.08173073643088094 0.26840069402626543 -0.005657149939053616 -0.5074627382024376 0.022480367596613822 -0.7591209104744122 -0.2556908553740787 -0.2550965523653937 0.0441172802771838 -0.31652232724964013 -0.0967343650444708 0.5043001052123646 -0.1420883868758876
722 -0.005027029285142065 -0.13928131069402444 0.28616393217902725 -3.2546531568473336 -0.06149125590405142 -0.05618392794116428 -0.16151088051587756 0.05713944621579904 -0.1304604048693841 0.2167206806844794 -0.13164211589367297 0.41166518118709416 0.649496410019995 0.013971126430999747 -0.32344843622406116 0.1442103118797519 -0.35138619369600865 0.15246305121757722 0.4575140867246681 0.2760199000660164
686 -0.15783714604141855 0.3913072320590533 -0.26266733558545335 -3.304930221297275 0.2462157855217942 0.12961135965065548 -0.4136697134271579 -0.07176078038962573 0.3588806294100558 -0.23516882471719394 0.23507112514351933 0.05961009170638475 -0.9876060323050643 -0.24537442681110952 -0.13295224847424095 -0.1380058934194799 0.5365020366778466 -0.07136566234123178 -0.6579312452702886 -0.09777574678082215
2568 0.3133544608212138 -0.14227684263514648 0.26241946746689415 0.5035108727369619 -0.1976866690628907 -0.1300270030380082 -0.16530571319950957 0.0014255978968394588 -0.19012681265011117 0.15963366010476476 -0.1689922266397176 0.05574307162471473 0.5490998699443421 -0.1471858215025986 -0.2242762915678495 0.21964721262531053 -0.46767210137891513 0.06093278857117866 0.6371400753952242 -0.2040912055642272
5664 -0.16710239129263602 0.05021608757060675 0.15489982979575737 -3.413433891475621 0.028434144914007687 -0.04760395803991216 -0.32134060274006243 -0.006490407355002196 0.24923989081814832 -0.06965559539358247 -0.004696185419489136 -0.060473746296308445 -0.3085802443636571 -0.2831183244863528 0.046284732726280066 -0.002063214884476852 0.2307653402868783 0.006268637012708885 -0.21221953806841556 0.033825781705216
31 0.2592583242293144 -0.21386457208353513 0.18526244925449717 -3.161241128991187 -0.012459487903875301 -0.014464210286302483 -0.21231135559154732 -0.18750206486752458 -0.36607749160909464 0.2772752837029955 -0.10173576627186849 0.33419040619256746 0.721576893132312 -0.1831779525788936 -0.04463387122472279 0.03077685117445717 -0.3345269157247873 0.024888236820734246 0.676198806058228 0.2414134149798118
802 0.3115025503463869 -0.014686791048744144 0.2056799611516357 1.0471049737084936 -0.27590419381345954 -0.010333879765831099 -0.5313045695771377 -0.05887322183970173 1.561768631315131 0.41171841689959227 -0.13210306095105406 0.3422243276796891 -4.139993860240657 -0.14184580219513637 -0.3418756114716558 0.2588082903681763 -0.5310266157360563 0.18339650535938642 0.6818205871943914 -0.36961235293858824
4220 0.08467920574442227 0.7254736902412495 0.17606574579650788 -2.8896158091649378 -0.11242390469702514 -0.020101581266287267 -0.304329088959861 -0.04136069103221051 -0.1384312433547134 0.08896222943175722 -0.12402311123892577 -0.0006673597901756254 0.5530602697633829 -0.2289691046041761 -0.2217023718778445 0.09123452453038086 -0.3638699462876535 0.12089337320361716 0.39201898415014497 0.1335571995581603
5314 -0.31677763048359536 -0.40207747756875084 -0.131445583546149 0.29134112640557963 0.19935088777679574 0.030214342074976797 -0.03482086614642421 0.047139869575132054 0.01783580837355506 -0.006913850259654336 0.4844294220725143 0.38551874800755254 0.07303239179052673 -0.18572500822006432 -0.11099561813243615 -0.18775401092970392 1.1215737113691182 0.06439281088333955 -1.4916496130513226 0.0029141489911859364
5385 0.15962378594012833 0.07289907441836371 0.25350218748087794 -3.227335306066405 -0.04624411876844193 0.03336237819329393 -0.14147494062271146 -0.029902992833561876 -0.1776040056703074 0.05003916896082704 -0.12934609113648002 0.21596557410600828 0.3759114078013606 -0.3499047827910914 -0.015591126546486206 0.11633443561434109 -0.1549159524609978 -0.02933794744246637 0.3457950479674303 0.10724738710397785
781 0.1787490441163402 -0.05808441440737684 0.08850665940367124 -3.3343960521069107 -0.27553711692196164 -0.023928525574657637 -0.024925494149820197 -0.011000238260186625 -0.31881121035140264 0.15918368014482423 -0.24087240908282762 0.5169265876374239 0.7762654653420796 -0.14662289286002986 0.004390406091278535 0.17389846424633826 -0.37379651332870684 -0.06355915830345987 0.6626805378278017 0.28010408109013535
3908 0.36013478536230625 -0.004463381186259877 0.22876174736065621 1.1112850563616572 -0.15784089225796627 -0.12990171514002014 -0.5500874669469102 -0.1076868578366818 1.7072314374456719 0.4640722712903295 -0.19991777393363233 0.12746918600628773 -4.1206017307115745 -0.25563309067420553 -0.3483312741444514 0.17652846708258735 -0.3825451678219134 0.26196491700501423 0.7694538152106631 -0.3045808882462242
7395 0.12659883082846546 0.14947686300878313 0.13781409587505342 -2.9466119261636075 -0.10274517457600918 -0.050691189880375735 0.01651094395536008 -0.023711810220815286 -0.09017402630300504 0.07428106316502485 -0.1182915591519311 0.27816998163138895 0.6888202850353747 -0.05704640800244486 -0.2589042691991253 -0.013072649933113537 -0.3256172635948763 0.04806404948174294 0.49260876366765943 0.17495055425594688
2902 0.005205497267238496 -0.12078803744438182 0.1508987024231253 -3.558217189628517 -0.11116009528823607 0.05337340461411908 -0.18825232196178046 0.10350326593912461 -0.05372658710216328 0.1253893775463562 0.1524518075981853 0.26368028005196736 0.41230139075319805 -0.10544522683797605 -0.2954526287130014 0.2847843599831918 -0.07613444759487263 0.15316457531475555 0.40839984252994577 -0.08992019230069684
963 -0.09333860840296351 -0.1577064674732513 0.30311732425330157 -3.1853082424990924 -0.07105686303810406 -0.04355683771178649 -0.16177634820413378 0.049504676683062784 -0.30049955774771714 0.21395051037583177 -0.12003341059299408 0.25784477006861106 0.713107417718769 -0.27110924127949926 -0.3466119686274506 0.09722450266626968 -0.3676623456728759 0.09631712393224867 0.6192016152957028 0.34961975870146267
1419 -0.47770953592418003 -0.22882137130234084 -0.5570547967136519 0.6064633664595913 0.11968793721661226 0.06586765776037702 -0.13123750743976725 -0.013880430416663241 -0.1150942243061316 -0.27429925906668956 0.628915531544009 0.767598402010596 0.31025539232471766 -0.3867239690513867 -0.4707159297965927 -0.056467274299354796 1.3212382341578683 0.14779896268966008 -2.0060702933917556 0.18088785311879516
6117 -0.006951358137795875 0.04475126487948696 0.03258043534443708 -3.3891330405074527 0.10966024733525113 -0.09527639659610841 -0.296513260520737 -0.09847933329731771 -0.00042174204381268565 -0.015161548307344948 -0.07420965594670653 0.14474770263792217 -0.31963485150064325 -0.30748170785402557 -0.13362597065343632 -0.2668923815673463 0.2907790297978956 -0.08984475008056235 -0.1311523720709933 0.03356556942131902
7144 0.11589450993040443 0.15219588054627486 0.12573292944629147 -3.175346586236108 -0.09304798488511187 -0.03146580862375197 -0.22473111837605536 0.034837273676492385 -0.06757339456591023 0.06997452949235804 -0.0386535221155545 0.16424832214849797 0.13415130029604236 -0.1338947301734882 -0.2816318549184017 0.16360943199904726 -0.004303610902383556 0.06894632929032984 0.17483523687949523 0.09760716470366608
541 -0.23706736483046686 -0.13532609335389342 -0.30891031136703007 -3.4686537290559585 0.16610398484174055 0.06993152702125696 -0.23574402925013163 0.019839689212384017 0.4046358154201304 -0.25387779912223607 0.12509599045125003 0.27388417754448063 -0.9654626994598928 -0.06301076156165687 -0.21343582896992958 -0.17101759509007342 0.4988010619373021 -0.08187863521735014 -0.8344718709883894 -0.3639229803754707
1218 0.4091459157838927 0.057340523851069705 0.22614677927846383 0.16754412641072544 -0.18315087508193742 0.1681341942706524 -0.03270645654801533 0.059138815951321644 -0.0232985958646783 0.3034817673655371 -0.30587721436437515 -0.12345703593435169 0.24253253180711598 -0.1978733108001972 0.15109126579339283 0.11563342209978232 2.752273640920442 0.09074848942157097 -4.151219950476715 -0.028689407285361856
2207 0.13692949039758867 -0.018316026469216703 0.10300650004466604 -3.074904218369019 -0.2937781622387038 0.08125163808094257 -0.0740464254954491 -0.06341020394279485 -0.24777661390976022 0.16338783371147433 -0.23715246825569997 0.3449937947923924 0.8119511890473612 -0.10688115451374301 -0.2025229976994059 0.33464560575428215 -0.5871906176124958 0.06272144336706538 0.48106567351174806 0.299363072580138
180 0.12261160651765914 -0.04148312903654212 0.2458816904123597 -3.2361011851677364 -0.07116224960689561 -0.0523160443162818 -0.20368443464768596 0.01661960146142619 -0.28032393712151665 0.03513140540882363 -0.09170685049125459 0.16964880173722374 0.53994682012024 -0.2829271547526515 0.0071169657508653285 0.13831671404121867 -0.11586152190636663 0.07279129823238391 0.4843123138296142 0.0006857917818185318
3187 0.045511377089090074 0.17076989462142933 0.09865474509602647 -3.1762617186969546 -0.0581771253467865 0.01169006927410588 -0.21575142523014895 -0.10452064134016287 -0.02643361743894521 -0.012838667759101318 -0.03161690272126258 0.4379285042795656 0.14219676520877614 -0.2701913794515965 -0.05724737657631567 0.11727949232787228 -0.08309163435768041 0.10874684633066016 0.09890406137065852 -0.09062437840004105
7633 -0.43893573316974277 -0.32738187664554735 -0.5873299896502013 0.9274781354027248 0.013620231046086522 0.044486759912613305 -0.3882948155642163 -0.13233017461477248 0.0943351327852484 -0.38953585597793494 0.6363292684115527 0.8122060690422962 -0.39929550901488664 -0.5136444568334498 -0.39497420661658916 -0.15616900489436286 0.10133524924432315 -0.0221999218786726 -0.3582008668351751 0.3951926220929227
4409 -0.10051843562656992 -0.4012447319698513 -0.09568735728925801 0.7905332049252916 -0.21246017611952508 -0.012639502733309396 -0.27791641643455406 -0.021694648764307014 -0.32222032027496106 0.47332620099853184 0.06286191166781087 0.41065601705638966 0.9964571614248964 -0.2754251074763436 -0.4383757452708568 0.11226683878706457 -0.35425114240851785 0.0240604653934081 0.3839690701016607 0.4652827163730859
1749 -0.062121597559749164 -0.15131417763752553 -0.128128395335555 0.4246380785592801 -0.19675458395855633 0.08843019347941884 -0.3904850832271989 0.04927151643056069 0.6081529529777507 0.319296303275633 0.09400870461365769 0.6393051785362488 -1.3734797463466066 -0.3613207485342209 -0.30240111139081927 0.22044032602538915 0.07556118731066076 0.22205138161021923 -0.07170139287526794 0.18703756679578223
1658 0.04507941738646112 -0.16995539658158665 0.17308859756402964 -2.87216776356305 -0.10912235218842918 -0.006361014248541581 -0.11693058091113315 -0.028700902556471432 -0.02455460840063777 0.06569349977416158 -0.06099948936467842 0.2754991024558536 0.2801338461202049 -0.09804621464071007 -0.0699478312356253 0.10879878365749798 -0.18019316655699863 0.019105244909703195 0.16678810382817452 0.0666022287127307
7259 -0.25713651899961093 -0.461059219378689 0.06590220460400713 0.8861836427652624 0.06403342694566516 0.021493819476644384 -0.17284118964517053 -0.15108946681391336 -0.09431824414256951 -0.1635869448314425 0.31438585418653187 0.5889607442202468 0.37511196631759786 -0.12088247368036778 -0.4828408601339489 0.02706812820521145 0.39178256099916764 0.0673820815069174 -1.0038939164731635 0.013680806017384844
5386 0.2091457439676491 0.11441301998077998 0.20885796277866078 -2.9161837031120155 -0.08220779189869656 -0.077519699281176 -0.3100199114451571 -0.02721029232902999 -0.14789065817848737 0.09540374242526088 -0.1447649088520417 0.27869105757914264 0.7068391608839436 -0.28822575251343985 0.04515001033677782 0.16957401548737935 -0.3792860473037227 0.018565433107717987 0.5419452571767794 0.3660310070412754
3942 0.09926058638073113 -0.17381645173300378 0.07866824610336473 -3.235896969824807 -0.09806026867721056 -0.0007700311285418383 -0.2624462407641746 -0.094157460516456 -0.13228466313147394 0.157080089333856 -0.011492381684266155 0.5042000907869516 0.6083730518643619 -0.2490991160746816 0.006669010176406563 0.16537635241015264 -0.38352461993978854 0.15918004575694517 0.4379141833443032 0.08382228845874434
4322 -0.3584685141755197 -0.22009472276528477 -0.23604567334055704 -3.3366887360463227 0.12839413693453597 0.0930100855494136 -0.22703628111257973 0.203783812240509 0.6251880411344954 -0.3358506207223669 0.337006378057518 0.15411933412499404 -1.2494709338729024 -0.2812718201472873 -0.026724077520287427 -0.11933395762917223 0.7674409719654792 -0.11343105323730553 -1.0034223081152114 -0.3604187986939229
5590 0.12858167251742758 -0.10388998801745547 0.1808092016048254 -3.0392338218907033 -0.14314915208560744 -0.07075034768569957 -0.310530268591605 -0.03818795168263179 -0.19120956680584109 0.24346823301176712 -0.23947191967051598 0.23248634402347487 0.715155229621188 -0.19995807372495397 -0.013756446203617705 0.10280557032520932 -0.34333494111885315 0.10143335753380536 0.5939569721807162 0.24881743680690677
980 -0.006207812039211296 -0.24017738303796296 0.2677916149226802 0.7809183231724047 -0.1775226786276106 -0.07630019032960013 -0.25351298709463005 -0.07394376536267927 -0.39533339865386946 0.1150973207803778 0.06090659069888339 0.3759043649669885 0.7990711419105198 -0.2687483967998628 -0.24620191914531067 0.21335356576890385 -0.5598795801183373 0.269747263418241 0.6392287549242645 0.18605838161802993
6933 -0.002069720524542773 -0.07403899344235045 0.40952794111275803 -3.145166993320045 -0.04616188692259812 -0.08627438011077702 -0.04147727069872565 0.04306519654207315 -0.2903073004564573 0.2233507454169063 -0.047952821754058954 0.2969192074416402 0.7996323420793198 -0.3040336899357654 -0.20483162958752524 0.12342387725396331 -0.324271211551681 0.08998828010820903 0.6667196013197594 0.24799305674667785
5470 0.18438932912690248 0.41995953597898067 0.15975185737514788 -2.8155526667035584 -0.06962125184575478 -0.016839280070456986 -0.3965583294817203 -0.022394353599817975 -0.28085351281868365 0.16156025872505722 -0.24512227634591094 0.054362807409241744 0.8024870273250599 -0.14295685457040772 -0.17822090765783463 0.17230828137306242 -0.47953347135598984 0.06806914061866425 0.5845311676459833 0.2272888923434124
6513 0.0212802907295487 -0.44604894478847734 0.3437418106329561 -3.192282187962483 -0.1500936165425097 -0.045839410267049026 -0.14286183262236452 0.03369119039679441 -0.4061749550419676 0.137054519929169 -0.10573598052579126 0.3659851323839067 0.7015163805615426 -0.42807284926133216 -0.10161399351059174 0.31196512402117127 -0.31831624122999475 0.048759086704820744 0.6905775923175458 0.21938349678304928
2105 0.009194982101957357 -0.11432427837085159 0.1470451505766204 -3.3840319961662617 -0.18137805468933368 -0.06465291824700366 -0.1945096577903595 -0.05224464525749429 -0.19554454213962602 0.055083180607383854 -0.06393145461227823 0.444176019581558 0.6925784272130675 -0.04110018223093735 -0.09238068330146641 0.25998701378691774 -0.36385960262729566 0.17299649494843705 0.4952649113159552 0.07242874800219562
1468 0.06576183910683779 0.32144357991113964 0.3691736888371744 -2.9326509750736394 -0.10477684546293106 -0.1368125871146733 -0.21014579781190101 0.058314567825415706 -0.24823075478094958 0.2974831230913545 -0.23437865651077322 0.09335712248198305 0.7595332857403949 -0.05570715275185472 -0.2685974816694767 0.023284129493939536 -0.3135158396302409 0.031781369121834074 0.5879346552318461 0.2602404616927402
8060 0.23264832202801472 -0.16715644305447272 0.07517348428694492 -3.5025948959236826 -0.13730595981252736 0.08933945814726592 -0.08487564628919617 -0.07888680390544393 -0.34884995660700036 0.12862514429282979 -0.0855574958525235 0.45201871559011053 0.5965394969591409 -0.0764095405008098 -0.18063269622915032 0.18338253149386624 -0.4434105312860901 0.07504408468057563 0.4599604753541001 0.08038695134454284
5427 0.23658640137050152 -0.13789578172050448 0.12498241248864174 -3.1144723106120846 -0.15280069261994633 -0.004084166763318982 -0.09176331372715008 -0.04737697350085565 -0.25003902817022156 0.11596035863750993 -0.14670667892799194 0.20478355163502016 0.8067388431567273 -0.22674666775217728 -0.04503543831870156 0.24922522342413847 -0.5317856801630526 0.034538262284291715 0.554836882112033 0.32651462827725825
453 0.23792081534508214 -0.10371409607372681 0.19548613208056598 -3.007384189930647 -0.13793294230373837 -0.0632365378750087 -0.12468303183905924 -0.05401667503217933 -0.25835536813532756 0.2800546478844705 -0.23920470139354283 0.17693954826496566 0.8187174842122833 -0.11838680206340774 -0.10104889846546035 0.15885123621330002 -0.43112986236676293 -0.016338279873016292 0.6357965667662161 0.20901326416078364
2025 0.12329011872191097 0.1827617014578466 0.31431995909917726 -2.665342473118601 -0.06838219508724545 -0.1023728600245342 -0.2214798511382497 -0.03371029792627406 -0.3095630978321675 0.30560788485787826 -0.1620479021242726 0.027796366415393525 0.7326202046382946 -0.16054093080755844 -0.3892873043534338 0.04315782346557966 -0.2702297338953693 0.05740478559939372 0.595571752576845 0.13739758029991123
3681 0.1232466835379396 0.03766383760719593 0.23617553161959887 0.21073834362361318 -0.28557368392811394 0.09327373246344027 -0.33261008544912174 0.023236838585399485 -0.39464107647421043 0.383344035068155 -0.021755880118731773 0.18601400677107505 0.8613604294348809 -0.42829411281970453 -0.27248942379332747 0.2836015190177374 -0.1947218513820785 0.17002307326570937 0.27801973660708584 0.535789680818906
6282 -0.0380051248225829 0.07024185187454877 -0.14256675652650483 -3.4214826240912832 0.13082833071596178 0.14489781218447093 0.028269109438449184 0.0004192588940189077 0.2649053055272076 -0.19313252709629103 0.15346450142230444 0.19506616847075642 -0.5735183668035276 -0.16428669104290688 -0.1641261867132882 0.05647363827778676 0.3069125666221765 -0.12541092753197997 -0.4221332665260942 -0.14576205619303495
7288 0.17681682169844032 -0.04753475608750177 0.1253766028540773 -3.4258270391306818 -0.1766631369430039 0.09272909384156913 0.06784246307433196 0.02671709055212972 -0.22025244701506674 0.027214136657430707 0.11558462358502941 0.46259315768663195 0.7008368888567258 0.07798625772423481 -0.23098866933252282 0.3078369044532917 -0.3333791717774331 0.22569109731479714 0.5873329101512511 0.16641012135427058
8243 0.07606010110601331 0.35434338938993065 0.26097390641033424 -3.006898267057002 -0.12067900183643512 -0.09702797532481044 -0.1322414053008225 -0.05257030063614829 -0.2835348520628089 0.04699322239822182 -0.24679706501317816 0.16364339121409893 0.5498440713841437 0.0466981704403131 -0.3720878855362237 0.07913689091931438 -0.33541618378818494 0.13570116386776196 0.3660844063168131 -0.021082300299518374
4516 0.11679518769817712 0.2703380210959737 0.19016995600831246 -2.497491786700022 -0.03182888205475017 0.10969965297650905 -0.09475090788091341 0.04026194075961621 -0.09622388217917503 0.1308398630173154 -0.018291416049964326 0.23759102532238835 0.24996096855204167 -0.13195610240346053 -0.14478259750387756 0.2049964042216219 -0.018553773561822955 0.0024106048547759495 0.3301760070281684 0.17122310747366973
1492 0.2731459962622767 0.23775266536230993 0.052007125816224596 -1.8976995021020369 -0.05510538635760464 -0.10060228795304074 -0.23173884273079604 -0.0810988436303188 -0.13740005098046487 0.28239175374201686 -0.1104097033717745 0.033868818701011126 0.7619457855736546 -0.14842176153257514 -0.12006419405711366 0.15347656052063974 -0.31721014289574456 0.25573823819280267 0.5695609657868045 -0.018140407194022583
949 0.2787167814023142 0.2696365327130367 0.14811306115143363 -1.745989322542492 -0.1309419674155678 -0.08668288716128321 -0.3312907046843063 -0.06645910748820481 -0.21823500875519525 0.22314973449569944 -0.17732659725431454 -0.09463785129267466 0.7029164575001138 -0.08396799666434404 -0.21902059252646675 0.14035366791920856 -0.2779635308888451 0.07276446533342479 0.5605442586051351 0.10694582835767624
2543 0.13184426386951428 0.10280902443224643 0.04269339696340734 -3.2335822652301713 -0.13188400863824387 0.038149633040711645 0.03699557682457147 -0.035718870950586706 -0.07517387850502805 -0.08843338081159846 0.03725182257700761 0.21196111549930247 0.26719797674862283 -0.09173497776704409 -0.047149082488567036 0.24147851494115596 -0.11638035597572688 0.04289956428008035 0.1506466825073374 -0.07485688399007896
727 0.2393025759688908 -0.11594581634373882 0.2121309100647855 -3.310054097016491 -0.18164580527282698 -0.0667983451502947 -0.263181356260358 -0.011466090093905293 -0.16956290742636068 0.19021225174348294 -0.01977750144075822 0.32170245329642794 0.6156435364269158 -0.1048708144363569 -0.10818536567016973 0.25204002044029733 -0.2598238567067842 0.1153674995202475 0.5271392198899633 0.036046207925004674
5404 0.1754895329901427 -0.3265994833747986 0.13354552236174974 -3.406395902284185 -0.19551639341754937 -0.03292203759206363 0.004840797512052112 -0.07993998011981748 -0.22869596951592833 0.20863027832883155 -0.14238882003409614 0.4627922383661525 0.7413375893543649 -0.11209691950322824 -0.14946007851293727 0.22122075031753222 -0.44595632672311597 0.08784315395361546 0.49054574717444505 0.045073764269900916
3397 0.06679735021233614 -0.0006473004981483886 0.30240813639195097 -3.1426064806927654 -0.08321139595983965 -0.07421480113955498 0.036308761063945615 -0.0035999055139601275 -0.12686890220915836 0.17205743166130086 -0.15080858162850552 0.34687664224724896 0.5783796269711808 -0.052737724736199275 -0.24807523843695603 0.06831311656409139 -0.2642149826095249 0.12047378655689613 0.41294479128979306 -0.03461536805172614
927 0.4216582700676602 -0.044609143754600324 -0.01704165793899381 0.46930125695968816 -0.1380562565919435 -0.00639921866431216 -0.08318440236270729 -0.11589166207820145 -0.1384741216426143 0.13752741756962505 -0.15060542197870694 0.015406634277128092 0.5447736842073465 -0.051134761772303736 -0.11679749854663722 0.12486162927547718 3.045421670369226 0.21333112884266606 -3.5144626874860347 -0.014175187697946498
4559 -0.18160261919233767 0.18858680706997066 -0.11425191035316314 -2.867222142371793 0.151473355539332 0.07166977258307367 0.029747528001413812 0.13305273193390957 0.4355538562852913 -0.2094570581025872 0.2068108106779091 0.030557492161490948 -0.7429544502642016 -0.06415646115783852 -0.0440452591005258 -0.10702059924441003 0.4147000709425436 -0.1199406925968744 -0.582642456736083 -0.07233640791067455
3778 0.30325975779280123 0.3358580873956529 0.01612090225614308 -2.8032585434966237 -0.18150950428453458 -0.0040456802321894025 -0.12233435198224629 -0.12073824523334219 -0.27491313497146613 0.2382343360490017 -0.11115344742769956 0.0005258217360333766 0.8548882253687153 -0.07918563680855037 -0.3679448522586124 0.17276379358687788 -0.4603317607283014 0.06492594682960903 0.6051855194963527 0.0456835861739697
8223 0.2941211185154549 -0.147940705571935 0.025544238572528563 1.237006556495463 -0.2716333236260885 0.15031849512192547 -0.05954335351973725 -0.06284349501056882 -0.5146855238926376 0.2902482442749623 0.08293355957378978 0.29603068186079523 0.9382327885826394 -0.06683795584022002 0.13250681839325285 0.17696833701762554 2.7235553673382307 0.16918717002958483 -3.4562867985341237 0.1790712746352593
1653 -0.27409734779012523 0.17549057966445614 -0.004447923001923371 -3.078189436128129 0.21834479121527167 0.02145389121519419 -0.06881118263459514 0.12683236221136596 0.19684793539824788 -0.16106854184312888 0.06210993712656816 0.17889041977987485 -0.829503987550394 -0.040597536153415714 0.008689937718539742 -0.1473893384153095 0.5105773937935726 -0.09360587346209334 -0.6029224752017475 -0.3656715302687875
4622 -0.14011019270989328 -0.06398545774984768 -0.08689811148067153 -3.413604427641712 0.06011999693433239 0.002321325078821298 -0.21102222931741133 -0.005917170513979783 0.40628566394065013 -0.11079436749133668 0.10331087349405808 0.31631966036379133 -0.5242376618858576 -0.024945259047460158 -0.053296051744947635 -0.09647841762144725 0.3436606666778362 -0.0679184035281862 -0.4921687162296124 0.004352677624726238
